0.0, 0.37308273, 0.31084764, 0.24776983, 0.08490627, 0.28148908, 0.39378622, 0.43701515, 0.29898682, 0.19521028, 0.22671418, 0.32715026, 0.111558504, -0.03904284, 0.0, -0.20706363, 0.16351668, -0.07233466, -0.046361033, 0.0, -0.037677586, 0.09969355, 0.16720116, 0.034340907, -0.15809317, -0.19842665, 0.0, 0.28361744, 0.2564266, -0.24129891, 0.0, -0.039614655, 0.34356987, 0.28377444, -0.21569888, -0.13951492, 0.16283312, 0.24534291, 0.3572797, 0.0, 0.0, -0.061199352, 0.07727641, 0.3098471, 0.20833653, 0.11942338, -0.13163616, 0.21462677, 0.0, -0.023320686, -0.05001266, -0.08208119, 0.26768848, 0.2114111, 0.19675796, 0.1282722, 0.0, 0.0, 0.24845433, 0.0, -0.113745876, -0.10622611, -0.121382005, -0.0800097, 0.20506679, -0.20610958, -0.21060853, -0.19691162, 0.0, 0.0, 0.010092343, 0.0, -0.20044966, -0.2925524, -0.17041841, 0.2058422, 0.10494436, 0.27217743, -0.033530656, -0.04545782, 0.30332735, 0.23880532, 0.25702506, -0.07942229, 0.14597875, 0.3087263, -0.03072777, 0.14743146, 0.17965734, 0.0, -0.14559335, 0.05943419, -0.1228644, -0.10042421, 0.18332651, 0.06926247, -0.2546622, 0.0, -0.1315754, 0.0, 0.0, -0.11678172, -0.26672578, 0.052289072, 0.055359628, 0.13483705, -0.07760861, -0.10331313, -0.14645252, -0.103729196, -0.12191738, 0.111324206, 0.0484541, -0.16025844, 0.0, 0.22889201, 0.21232924, 0.0, 0.0, 0.0, 0.0, 0.36991564, 0.4198103, 0.28067467, 0.35246706, -0.03794987, -0.058986586, -0.036709946, 0.13162814, 0.23142199, 0.20840102, 0.2858543, 0.2653214, 0.0, 0.14833294, -0.038251914, -0.021305667, -0.1454356, 0.0, 0.0, 0.027076257, 0.0, 0.0, 0.0, 0.037622888, -0.18599807, -0.20386753, -0.23422924, 0.0, -0.23605457, -0.034722008, 0.021943714, 0.17403428, 0.13610814, 0.04187513, 0.05981017, 0.18971659, 0.071835905, 0.19751763, 0.121280685, -0.076253, 0.0, -0.15138756, 0.0, -0.057683933, -0.104493156, -0.21729958, -0.021754794, 0.045954157, -0.0265523, -0.14791124, 0.0070937383, -0.06529162, -0.024180088, -0.045040518, 0.18921104, 0.0, -0.101037465, -0.15777107, 0.095780045, 0.0851146, 0.0, -0.15473482, 0.0, -0.15270273, 0.0, -0.2048904, -0.17055987, -0.18708193, 0.0, -0.114391245, 0.029447546, 0.02711671, -0.092488564, -0.07856154, 0.1892503, 0.065125376, 0.18468115, 0.0, 0.0, 0.06347669, 0.0, 0.048358243, -0.064991824, 0.036147438, -0.06272143, 0.09349752, 0.0, 0.019826792, 0.0047380594, 0.0, -0.0132622225, 0.12839237, -0.058707155, -0.021727068, -0.2572995, -0.25532797, -0.22011916, -0.065974414, -0.059015848, 0.064483136, 0.0, -0.11082533, 0.0, 0.049972706, 0.060283627, 0.0, -0.09661038, 0.1405693, 0.07797227, 0.0, 0.0, 0.07210409, 0.010514668, 0.0, -0.13457727, -0.08709493, 0.0, -0.03424654, 0.015696563, -0.10528475, 0.0, -0.15142994, 0.0, 0.0943194, 0.0, 0.0, -0.053567994, 0.09894018, 0.12648314, -0.26450494, 0.0, 0.0, 0.15521982, 0.08012294, 0.0, 0.0, 0.0, 0.0, 0.0208735, 0.0, 0.124482684, 0.0, 0.0, 0.0, -0.033658844, 0.09986968, 0.0, 0.0, -0.25547335, 0.11929229, 0.0, 0.0, 0.0, -0.14426573, -0.16547352, -0.08506388, 0.0, 0.14228566, -0.07183628, -0.16487019, 0.07008759, 0.0, -0.07992339, 0.0, -0.14124907, 0.10192124, 0.0, 0.0, 0.0, 0.0, 0.07619009, 0.0, 0.0, 0.0, 0.09391126, 0.13100342, -0.06340697, 0.04266551, 0.07043691, -0.11089365, 0.0, 0.0, 0.10471522, 0.0, 0.0, 0.0, 0.042602725, 0.13934216, -0.14411183, 0.0, 0.058631413, 0.15546119, 0.051774982, -0.13965717, 0.11825726, 0.0, 0.0, -0.023386145, -0.1355837, 0.0, -0.10122636, 0.0, 0.123803675, 0.0, 0.072640434, 0.0, 0.099152625, 0.0, 0.16005146, -0.12818594, 0.061299276, -0.1336516, 0.0, 0.10190522, -0.16716483, -0.1518581, -0.13721259, 0.065959886, 0.0, -0.062191915, 0.08017461, 0.0, 0.0, 0.0, 0.0, 0.0, -0.034960344, 0.08446354, 0.045305442, 0.0, 0.086597495, -0.01155824, 0.0, -0.049989868, 0.0, -0.112282455, -0.11245756, 0.0, 0.0, 0.0, 0.0, 0.0, 0.0, 0.0430756, -0.113154165, 0.0, -0.035850566, -0.06294297, 0.1045985, 0.0, -0.053737376, 0.0, 0.0, 0.0, -0.06351642, 0.0, -0.15826817, -0.11632644, 0.16410354, 0.12774843, 0.0, -0.22214808, -0.056174982, 0.0, 0.16224812, 0.0, -0.17610152, 0.087197304, 0.073033676, 0.0, -0.105447255, -0.13805216, 0.0, 0.03094663, 0.0, 0.032991167, -0.08812391, 0.0, -0.038460724, -0.10557429, -0.064526685, 0.0, 0.0, 0.0, -0.058735445, 0.0, -0.12002129, -0.15958275, -0.14960533, 0.02793833, 0.15345517, 0.023061946, -0.18315885, -0.19825335, -0.007638082, 0.07073419, 0.039619237, 0.0, -0.1293462, -0.19494064, 0.1025203, 0.19904088, 0.0, -0.031541154, 0.0635421, -0.07930653, 0.08734103, -0.06690885, -0.04759416, 0.029009765, 0.054414686, 0.0, 0.08809712, 0.09837391, 0.0, -0.11577788, 0.038508333, 0.0, -0.07254228, 0.0, -0.088181056, -0.15109493, 0.0, 0.0, 0.0, 0.0, 0.04411376, 0.0, 0.0, 0.0, 0.1003109, 0.044137653, 0.0, 0.0, 0.089771226, -0.13069648, -0.15046973, 0.0, 0.0, 0.049862485, 0.0, -0.14534396, -0.10665546, 0.0, -0.063384056, 0.11452741, 0.020072168, 0.020475635, 0.0911651, -0.067366995, 0.0, 0.06344159, 0.0, 0.0, -0.17810546, 0.0, 0.0, 0.0, -0.13971539, -0.08279699, 0.12977435, 0.050017342, 0.0, 0.0, -0.055316556, 0.10509806, -0.050345693, -0.05570469, 0.10812755, 0.0, 0.0, 0.0, 0.0, 0.1077521, 0.0, -0.14108378, -0.11951775, -0.01442522, 0.0, -0.041917052, -0.09095439, -0.22658485, -0.19985262, -0.33479384, 0.019215375, -0.011931082, -0.1147365, -0.040277176, -0.016910318, 0.082725264, 0.16399564, 0.11774262, 0.2436367, 0.21499294, -0.051512286, -0.16391241, 0.0, -0.20969722, -0.13929465, -0.116038896, -0.024172682, -0.12362998, -0.2652325, 0.0, 0.05188315, 0.0, -0.12404404, 0.0, -0.06889321, 0.13530847, 0.0, -0.09760007, -0.073722415, 0.091513835, 0.0, 0.0, -0.06864365, 0.043462988, 0.094699405, 0.0, -0.082561, -0.097757824, -0.09126762, -0.11537989, -0.12600934, 0.03159279, -0.10531949, 0.060115516, -0.06252068, 0.058698356, 0.0043251356, 0.0, 0.08028412, -0.09349863, 0.0, 0.0, 0.0, -0.053359736, -0.07041165, 0.0, -0.1638545, 0.035586476, 0.0, 0.0, -0.13733071, 0.0, -0.107356906, 0.0, 0.0, 0.09382401, -0.027199, 0.10391848, 0.0, -0.0578489, -0.026304415, -0.11715918, 0.0, 0.0, 0.0, 0.0, -0.14079735, 0.0, 0.0, -0.10419511, -0.13331491, -0.1402119, 0.0, 0.03227147, 0.046112716, 0.042759195, -0.07762998, 0.0, 0.0, -0.052433222, -0.054148354, 0.0599222, 0.059267797, -0.035841275, 0.0767754, 0.0, 0.0, 0.0, 0.0, 0.13446067, 0.0, 0.0, 0.0, 0.0, -0.060035817, -0.19306403, -0.11507406, 0.0, 0.0, 0.0, -0.10955914, -0.15698658, -0.11952126, 0.021446835, -0.09361158, 0.07674596, 0.0, -0.051446777, -0.032647677, 0.11777249, -0.09642122, 0.05173897, 0.0, 0.2013722, 0.07539785, 0.0, -0.06553371, -0.070930935, 0.07291849, 0.0, -0.114821754, -0.14788391, -0.11937237, 0.08837553, 0.11966166, -0.10886345, 0.0, -0.10784494, 0.12836316, 0.07154794, -0.031085935, 0.0516639, 0.049656563, 0.0, -0.012707058, 0.0, -0.030808225, 0.18834324, 0.09062979, -0.104690075, -0.1607965, 0.0, 0.13237521, 0.0, -0.08934893, 0.0, 0.0, -0.15200113, 0.0, -0.133449, 0.0, 0.09608064, 0.0, 0.0, 0.0, 0.095165886, -0.094837114, 0.08681012, 0.0, 0.0, 0.025769617, 0.0, 0.0, 0.0, 0.0, -0.08534371, 0.0, 0.0, 0.060678754, -0.17295975, -0.04563395, 0.11192261, 0.040414833, -0.16361371, 0.0, 0.12629151, 0.0, 0.0, 0.0, -0.051130857, 0.04430066, -0.08840581, 0.0, 0.027384011, 0.036162537, -0.15733689, 0.0, 0.0, 0.08307021, 0.0, -0.12418028, 0.0, 0.16887741, -0.05051877, 0.036775276, 0.058559295, -0.04911949, 0.09097316, -0.06048968, 0.0, 0.0, -0.091363564, 0.0, 0.0, 0.023858597, 0.0, 0.021225434, 0.0, -0.08244791, -0.08605112, -0.076095864, 0.0, 0.03547491, -0.04571441, 0.123840384, -0.11162053, -0.14104624, -0.13069043, 0.0, 0.18596423, 0.0, -0.13084419, 0.0, 0.13507687, 0.16593425, 0.04587488, -0.07686274, -0.034955274, 0.06627656, -0.07662648, 0.09392763, 0.07274934, -0.038103815, 0.0, 0.0, 0.040499855, -0.069641165, 0.0, -0.05431916, 0.0, 0.033187345, -0.062101517, 0.0, 0.07944399, 0.07618291, 0.091189384, -0.09484347, 0.0, 0.050675035, 0.14840922, 0.0, 0.0, 0.062529646, -0.07094026, -0.1263406, 0.0, 0.09598758, 0.0, -0.1673602, -0.20979409, 0.0, 0.0, 0.0, 0.1114137, 0.18516065, 0.0, 0.0, 0.0, 0.0, 0.21160604, 0.1491117, -0.07624935, 0.0, 0.053533454, 0.23481365, 0.0, 0.0, 0.0, 0.1950502, 0.03890445, -0.080781326, -0.06082994, 0.0, 0.0, -0.038453914, 0.0, -0.1736851, 0.04395707, 0.0, 0.0, 0.098895304, 0.0, -0.1254488, 0.0, 0.0, 0.16910212, 0.0332191, 0.0, -0.14930351, 0.0, 0.0876487, 0.04373961, 0.1512914, 0.0, 0.119287565, 0.0, 0.20338975, 0.0, 0.0, 0.0, -0.060478423, 0.0, 0.0, 0.0, 0.04057285, -0.1151372, 0.0, -0.027060201, -0.03742559, 0.0, 0.0, -0.10133081, 0.0, 0.085842535, 0.0, 0.0, 0.0, 0.0, 0.0465957, 0.0, 0.0, -0.0333923, -0.11897244, 0.0, 0.0, 0.0, 0.0, 0.019009331, -0.09267786, -0.14345002, 0.049432058, 0.0, 0.0, -0.122724555, 0.0, -0.060301337, -0.08586127, 0.10252124, -0.09342972, 0.0, 0.0, 0.0, 0.05419717, 0.0, -0.085589275, 0.072547935, -0.104761384, -0.12856318, 0.0, -0.034048848, 0.024964103, -0.07476603, 0.1315213, -0.12435759, 0.0, 0.0, 0.107836336, 0.0, -0.031799443, 0.056164935, 0.0, 0.0, 0.0, -0.04196929, 0.08521843, 0.0, -0.107188955, 0.0, 0.058050845, -0.11143909, -0.17609933, 0.0, 0.0, 0.0, 0.0, -0.046349313, -0.13945489, -0.057618227, -0.13695009, 0.0, 0.0, 0.11615421, 0.10686724, 0.0, 0.09878748, -0.08783988, 0.07337478, 0.07831526, 0.0, -0.100244105, 0.040873718, -0.17913097, -0.2736087, -0.09171298, -0.03062564, 0.0, -0.1777258, 0.0, 0.0, 0.0, 0.0, 0.0, 0.0, 0.04925975, -0.06945034, 0.0, -0.052311912, 0.07664016, 0.0, 0.0, -0.0744583, 0.08482198, -0.072695546, 0.088109456, -0.06609187, -0.09254842, 0.028083235, 0.07591467, 0.0, 0.030965567, 0.0, 0.0, -0.078130275, -0.05345949, 0.0, 0.0, 0.059381496, -0.12265912, 0.06969422, 0.018951334, -0.023216892, 0.12231347, 0.114708684, 0.0, -0.03973958, 0.0, 0.0, 0.0, -0.037491355, -0.10098951, 0.0, 0.0, -0.044847377, -0.05795055, 0.0, 0.0, 0.037411816, 0.0, 0.039301924, 0.050962355, -0.073279545, 0.07020588, 0.0, -0.066140935, 0.0, 0.0, 0.055615883, 0.0, 0.0, 0.0, 0.022849916, 0.07811737, -0.08873555, 0.0, 0.0666957, -0.087863505, 0.0, 0.058834985, 0.0, 0.0, -0.08559521, -0.029047068, 0.12679419, 0.14489728, -0.009164288, 0.0, -0.059418328, 0.0, -0.0945385, -0.05088542, -0.0069313156, 0.15218295, 0.0, 0.11137234, 0.0, 0.0, 0.0, 0.0, -0.038530458, 0.0, 0.0199154, 0.0, 0.0, -0.083171986, -0.10940107, 0.0, 0.07445947, -0.083294116, -0.129738, 0.0, 0.0, -0.058388755, 0.0, 0.0317207, -0.19052897, -0.09085756, 0.0, 0.10865025, 0.0, -0.11187298, 0.0, -0.067515075, 0.08869832, -0.09389327, 0.0, 0.0, 0.00977961, 0.019309863, 0.0, 0.0, -0.060247026, -0.09320066, -0.09806877, 0.0, -0.16349208, 0.0, 0.0, -0.083673395, -0.07743271, -0.062241316, -0.11608565, 0.07608457, 0.0, -0.11573128, 0.036540642, 0.0, 0.0, 0.06664844, 0.0, 0.057348702, -0.12654504, -0.0679572, -0.080523446, 0.0, 0.06197315, -0.062165942, 0.0, 0.025357889, -0.11346906, -0.11757914, 0.0, 0.027705926, 0.07335599, -0.11543567, 0.040014338, -0.10100144, -0.07130641, -0.06905732, 0.06171629, 0.055966597, 0.0, 0.0, -0.07106226, 0.0, -0.08396882, 0.087137036, 0.037937734, 0.06317311, -0.0801879, -0.08452006, 0.043677933, 0.05963143, 0.0, -0.030967262, 0.07709336, -0.092340745, -0.09230363, 0.023289148, -0.11604407, 0.0, 0.0, 0.052542754, -0.061838847, 0.05853384, 0.0, 0.0, -0.06243704, -0.0933089, -0.11035325, -0.051558636, 0.0, -0.04617033, -0.09509871, 0.06885486, -0.10396662, 0.0, -0.06759424, 0.067917086, 0.08493913, 0.051034857, 0.0, 0.06143817, -0.037601568, 0.034839865, -0.09705354, -0.07101709, 0.0, -0.06836334, -0.07535517, 0.0, 0.0, 0.01874461, -0.12447427, 0.052181684, -0.12567563, 0.0, 0.038428973, 0.0, -0.09951124, -0.06183185, -0.044480637, -0.09684111, 0.0, -0.091840446, -0.035236254, 0.10494007, 0.0, -0.03519857, -0.08953822, 0.0, 0.0641884, 0.0730081, -0.041350573, 0.0, 0.0, 0.0, 0.095326275, 0.0, 0.09455358, -0.05555467, 0.0, -0.10635584, 0.06357123, 0.054773834, 0.0, -0.087832324, 0.0, 0.0, -0.05833562, -0.06901071, 0.0, 0.057197876, 0.0, -0.09830623, -0.12035803, 0.0, 0.0, 0.043444656, -0.13184033, 0.0, -0.11755007, 0.0, 0.0, 0.0, 0.0, 0.03293356, -0.099949904, 0.0, -0.06768833, -0.08607925, -0.10596366, -0.108433284, 0.0, 0.0, 0.045187864, 0.014724288, 0.046191234, 0.0, 0.0295814, 0.0, 0.0, -0.10883711, -0.10692556, -0.08994809, 0.0, 0.061771344, 0.05580001, 0.0, 0.07866619, 0.0, -0.023195425, 0.0, -0.14714508, 0.0, -0.09772831, 0.13674901, 0.0, -0.122024424, 0.015934007, -0.14014369, 0.0, 0.07689992, 0.0, 0.0, 0.0, 0.0, 0.07088204, 0.0, -0.039939567, 0.0, 0.0, 0.095819324, 0.0, 0.15295948, -0.03243452, 0.0, 0.0, -0.06806776, 0.15391435, 0.1518816, -0.064810954, 0.04947213, 0.0, 0.061274562, 0.0, -0.103228726, 0.07253314, -0.036062393, 0.09506982, 0.04758276, -0.07222407, -0.096218824, 0.100740604, -0.08321385, -0.080159254, -0.06179122, -0.07572927, -0.07567831, 0.0, -0.07337618, -0.04718143, -0.06615659, -0.06310997, 0.0, 0.06604129, 0.0, 0.051002674, 0.05530369, 0.04560474, 0.0, 0.01230581, -0.11738643, 0.05963864, 0.0, -0.06705983, 0.0, 0.041937068, 0.0, -0.13026956, -0.115280665, -0.043810997, 0.0, 0.080247365, 0.0, -0.098827474, 0.0, -0.022316504, 0.12541463, 0.08417914, 0.0, -0.090193726, 0.0, 0.0, 0.11657188, -0.09510517, -0.059967183, 0.0, -0.077603355, 0.0, 0.049886636, -0.04717789, 0.0, 0.0, 0.0, 0.0, 0.0, 0.16426428, 0.0, 0.21093208, 0.11899076, 0.0, -0.020067805, -0.034154914, -0.02825096, 0.0, 0.06853586, -0.10243179, 0.027509207, 0.0, -0.12604263, -0.053218484, 0.0, 0.0, 0.0, 0.06831513, 0.0, 0.0, -0.053116918, -0.07277244, 0.06174255, 0.0, 0.102285706, 0.044941083, 0.0, -0.045877, -0.09848038, -0.096353345, 0.0, -0.09651469, 0.09446966, -0.053599413, -0.06414889, -0.089541294, 0.09513359, 0.07620458, 0.0, 0.0, 0.17470355, 0.0, -0.117143735, 0.019840568, 0.0, 0.16762997, 0.0, 0.118465625, 0.0, 0.0, 0.0, 0.0, 0.09441994, 0.0, 0.0, -0.11649577, 0.0, 0.05474117, 0.0, 0.0, 0.0, 0.049433407, 0.0, 0.1490601, 0.13323572, -0.065894745, 0.0, 0.0, 0.117427304, -0.11301683, 0.0, -0.11746724, -0.1050795, 0.024970673, 0.0, 0.0, -0.11022277, 0.0, -0.080161765, -0.11708839, -0.062663764, 0.04234504, 0.08308965, -0.07706586, 0.14298388, 0.0, 0.0, 0.0, 0.0, -0.07683608, 0.0, 0.04692341, 0.0, 0.0, 0.09133402, 0.0, 0.14358129, 0.11894641, 0.0, 0.0, 0.06780118, 0.0, 0.0, 0.0, -0.16455457, 0.0, 0.0, 0.0, 0.07107132, 0.0, 0.024394274, 0.03651876, -0.05179828, 0.0, -0.07267197, 0.085284315, -0.07194655, -0.120490305, 0.0, 0.0, 0.0, 0.0, 0.120743655, 0.0, -0.10827221, 0.0, -0.11881751, 0.0, 0.053046696, 0.07762291, 0.0, 0.043343633, -0.09181767, -0.028678084, 0.0, 0.07932562, -0.1069855, 0.0, -0.16905513, 0.0, 0.01624231, 0.12455622, 0.0, -0.18327172, 0.0, 0.0, 0.15490943, -0.070473984, 0.0, 0.0, 0.0, -0.046386555, 0.0, -0.10738161, 0.0, 0.053594492, -0.17471072, -0.17861842, 0.077767365, -0.069610484, 0.0, -0.15184659, 0.0092673935, 0.0, 0.03177195, -0.055778153, 0.0, 0.0, -0.08497303, -0.13118851, 0.0, -0.056599554, 0.0, 0.0, 0.0, 0.069182746, 0.06555991, -0.14239904, -0.07407231, 0.09587507, 0.0, -0.07966689, 0.0, -0.11369938, -0.04816577, 0.07823747, 0.106696285, -0.02922007, 0.07064628, 0.0, -0.106033854, -0.021538088, 0.0, 0.0, 0.0105962055, 0.09243383, 0.12808824, -0.083266854, 0.040719688, 0.0, 0.0, 0.0, -0.102758825, 0.07934439, 0.0, 0.0, -0.08636812, 0.03429485, -0.1040665, -0.07265663, -0.063262634, -0.050482635, 0.0, 0.03491208, 0.0, -0.043921724, 0.0, -0.09953999, 0.0, 0.0445547, 0.0, 0.047074825, 0.0863197, 0.033085264, -0.12592551, 0.028827824, -0.08299759, -0.03562191, -0.06808804, 0.048227966, -0.062629595, 0.0, 0.05776999, 0.0, 0.0, 0.0, 0.0, -0.10890281, -0.080619894, 0.0, 0.10806808, 0.0, -0.060551923, 0.082672335, 0.0, -0.06099748, 0.0, 0.02890885, -0.09828379, 0.05103922, 0.0, -0.0911655, 0.09083154, 0.0, 0.09124857, -0.028278915, -0.08903719, 0.114265256, 0.0, 0.09204728, 0.0, 0.0952528, 0.0276546, 0.0, 0.086678855, -0.06786487, 0.017656514, 0.0, 0.0, 0.09697894, 0.0, -0.14198309, 0.044016067, -0.046210233, 0.13815749, -0.103886135, -0.12163982, 0.0718455, 0.101905584, 0.05221804, 0.0, -0.11999346, 0.0, 0.12849791, 0.0, -0.1369934, 0.053807, 0.033491917, -0.111823544, 0.0, 0.0, 0.027282374, -0.12603658, 0.04223661, 0.0, 0.0, 0.0, 0.0, 0.107388675, 0.0, -0.067466944, -0.1265986, 0.0, 0.0, 0.03269872, 0.0, 0.0, 0.0, -0.016376913, 0.0, 0.14616002, 0.074765794, -0.031968173, -0.09110206, 0.04186119, 0.0, 0.06931856, -0.07319222, 0.0, 0.0, 0.0, 0.0, 0.0802673, 0.038510606, -0.07476473, 0.062948465, -0.06145995, 0.0, 0.0, 0.0, -0.09656081, 0.0, 0.040957876, 0.0, 0.0, -0.054647576, 0.0, -0.08072581, 0.0, 0.117852375, 0.0, -0.10922317, -0.086862415, -0.07274021, -0.05172338, -0.07067138, 0.010680602, 0.0, -0.027958224, 0.0, 0.078849815, 0.09349987, 0.0, -0.07283459, 0.0, 0.1391532, 0.12377054, 0.0, 0.0, 0.09521484, -0.0198031, 0.0, 0.055797286, 0.0, 0.029395841, -0.12148095, 0.08166219, 0.0, 0.0, 0.0, 0.063095205, 0.057724528, -0.09643941, 0.0, 0.11496742, 0.08992207, 0.057275496, -0.05509386, -0.0653308, 0.07993522, 0.07115074, 0.15375744, 0.09407096, 0.045489777, -0.09342778, -0.089547806, 0.0, 0.0, -0.021615801, 0.0, 0.0, -0.14885455, 0.0, 0.13612977, -0.07364141, 0.043465547, 0.0, -0.060205706, 0.0, 0.12136757, 0.0, 0.060203996, 0.22291206, -0.08535575, -0.08631407, -0.089235246, -0.13021484, -0.11479175, 0.087019525, -0.082790576, 0.0, 0.0, 0.0, -0.07671097, 0.09175394, 0.0, -0.0792072, 0.0, -0.053143874, 0.0, 0.0, 0.0, -0.09645107, 0.117016815, 0.0548251, 0.041430943, -0.08253735, -0.053500887, -0.03200143, 0.03477703, 0.0, -0.07562895, 0.0, 0.054074172, 0.0, -0.100627646, 0.040120132, -0.09385469, 0.07241053, 0.0, -0.010472861, 0.0, 0.117971845, -0.16842367, -0.21485065, -0.15130326, -0.092911646, -0.075168915, 0.044621654, -0.14402396, -0.12598708, -0.12733458, 0.0, 0.0, -0.042867895, 0.0, 0.0, 0.0, 0.0, 0.0, 0.0, 0.11949132, 0.029641762, -0.11770296, -0.13296372, -0.13012457, 0.0, -0.1281831, -0.120775856, 0.0, 0.03600397, 0.0, 0.029442036, 0.0, 0.12346381, 0.12496038, 0.0, 0.1374318, 0.101660155, 0.0, 0.0, -0.032282535, 0.10595913, 0.09285471, -0.112326965, -0.058083326, 0.08182891, -0.031700503, 0.12571946, 0.0, 0.14816603, 0.15226136, 0.0, 0.02368369, 0.0, 0.0, -0.095839776, 0.0, -0.11433955, 0.048597746, 0.0, -0.1454057, -0.14832091, -0.037194926, -0.011346221, 0.0, 0.12564553, -0.07115788, -0.059559647, 0.0, 0.0, 0.0, 0.10458905, 0.047385428, 0.10127027, -0.07479861, 0.090337306, 0.064028755, 0.0, 0.051719014, -0.16426246, 0.0, 0.055698592, -0.05767048, 0.044993117, 0.0, 0.0, -0.11405963, 0.0, 0.0, 0.0, 0.0, 0.0, 0.0, -0.047100697, -0.10496126, 0.0250341, -0.06258472, 0.0, 0.0, 0.10564777, -0.10649893, -0.13750349, 0.0, -0.08896411, 0.0, 0.0, -0.13735448, 0.05204424, 0.0, -0.16275892, -0.13786735, 0.0, 0.0, 0.068872005, 0.0, -0.049487043, -0.08988748, 0.0, 0.04568789, 0.1066938, 0.0, 0.0, 0.0, -0.062477164, 0.0, 0.047469586, 0.0, -0.11025778, 0.0, -0.099175945, 0.0, -0.15405936, 0.039992295, 0.0, 0.0, 0.0, 0.0, 0.0, 0.0, 0.103201695, -0.054763917, 0.0, 0.0, 0.0, 0.0, 0.0, -0.11449958, -0.08851743, 0.0, -0.05402305, -0.089325205, 0.04705741, -0.0717766, 0.0, 0.10592398, 0.0, -0.0879404, 0.0, 0.0393503, 0.0, 0.0, 0.0, 0.02328979, 0.0, 0.0, 0.061394885, 0.0, -0.16391046, 0.02562901, 0.0, 0.08037558, 0.12565677, 0.07364397, 0.0, 0.0, 0.035731085, -0.11137081, 0.0, -0.08058796, 0.0, 0.0, 0.0, 0.0, 0.078956954, 0.10071725, 0.0, -0.14492764, 0.0, 0.108270965, 0.0, -0.1221369, -0.12112643, -0.039526105, -0.07781607, 0.060447626, -0.119105294, 0.0, 0.10937561, -0.07492373, 0.07399411, 0.09233635, 0.06469153, 0.08950159, 0.13593997, 0.0, 0.07843119, -0.0287095, 0.0, 0.10780408, 0.0, -0.11138211, 0.0, 0.0, 0.079339914, -0.066716544, 0.046055354, -0.15184458, -0.06358191, -0.074813, 0.0, 0.0, -0.19949448, 0.0, -0.058075, -0.13707851, -0.11830919, 0.0, 0.07099951, -0.11608302, 0.03664499, 0.0, 0.0, 0.0, 0.0, 0.0, 0.0, 0.0, 0.0, -0.0701523, 0.0, 0.0, 0.0, 0.0, 0.0, -0.041877605, 0.07612589, -0.11147492, 0.14248961, -0.087065436, 0.0, 0.0, -0.090478346, 0.0676666, 0.0, 0.0, 0.0, 0.0, 0.0, 0.0, 0.0, -0.0818886, -0.10940907, 0.0, -0.1038947, 0.0, 0.15541275, 0.12735255, 0.0, 0.017433971, 0.0, 0.0, 0.0, -0.11710261, 0.0, 0.0, -0.031154271, 0.054779593, 0.044666793, 0.0, 0.0, 0.0, 0.0, -0.06129919, 0.07200838, 0.009074669, 0.0, 0.0, 0.0, 0.1258419, 0.104109004, 0.0, -0.11090579, 0.0, 0.093550615, -0.089051046, 0.0, 0.0, -0.09643493, -0.13519782, -0.12953195, 0.0, 0.0, 0.0, 0.11325528, 0.0, 0.16563146, 0.14420444, 0.11351969, 0.0, 0.0, -0.042372998, 0.12567772, 0.0, 0.0, 0.057042807, 0.0, -0.05864709, 0.083855994, -0.11521665, 0.0, 0.0, -0.08571992, 0.0, 0.11226537, 0.05414338, -0.10647726, 0.052116167, 0.0, 0.118254915, -0.047532175, 0.0, -0.032372072, 0.0, 0.03785778, 0.11248388, 0.11392554, 0.043028682, -0.13176206, -0.16686994, -0.16708294, -0.1177797, 0.0, -0.17096859, 0.0, 0.0, 0.0, -0.14340408, -0.014672537, 0.0, 0.23323595, 0.09119199, 0.19479506, 0.09929235, -0.023541603, 0.0, 0.17248474, 0.0, -0.076625064, 0.046813093, -0.123155214, -0.18069881, 0.043032866, 0.0, 0.0, -0.09773512, 0.0664485, 0.0, 0.0, 0.0, 0.011876391, 0.016950766, 0.13999572, 0.094551265, -0.08916398, 0.0, 0.0, 0.0, 0.0, 0.0, 0.035253633, 0.04754209, 0.0, -0.0609501, 0.0, -0.08669306, 0.0, -0.059657265, 0.0, 0.0, -0.09587957, 0.11069147, 0.0, 0.10969644, 0.0, -0.009445398, 0.0, 0.12264247, -0.064929895, 0.0, -0.03333707, 0.08807168, 0.0, 0.0, 0.0, 0.0, 0.0, 0.102596, -0.08270852, 0.09820994, 0.0, -0.07992545, -0.082741074, 0.05153018, 0.0, 0.026777156, -0.113202594, 0.0, 0.069227956, 0.0, -0.069704465, 0.049490817, 0.0, 0.0, 0.0, -0.09489931, 0.0, -0.06552476, -0.06684229, 0.08093094, 0.0, -0.0870643, 0.0, 0.070361845, -0.085859016, 0.0, -0.08194617, -0.09293113, -0.055076387, 0.08340194, -0.056435905, -0.08594299, -0.056439176, 0.0, -0.045242757, 0.14581664, 0.14200304, 0.1079491, 0.0, 0.0, -0.08409002, -0.10138535, 0.05006432, 0.100638285, 0.13301805, 0.12808736, 0.114836566, 0.13533996, 0.116268896, 0.0, 0.0, 0.0, -0.021049121, 0.0, -0.09305253, 0.0, 0.0, 0.0, 0.0, -0.073694594, -0.08506673, 0.0, 0.082920894, 0.06262717, 0.0, 0.119588725, 0.0, 0.0, 0.08156237, 0.0, 0.0, 0.0, -0.16543998, 0.0, 0.044222165, -0.029184725, 0.024136135, 0.0, 0.0, 0.0, 0.040193878, 0.046032757, -0.16841939, 0.09372336, 0.04424956, -0.08886314, -0.08857335, 0.0, 0.04809188, -0.108705275, 0.0, 0.0, -0.040168833, 0.02924781, 0.05436527, 0.0, 0.110228784, -0.08507719, 0.07768873, 0.108895846, 0.0, -0.098017156, 0.0, 0.076861985, -0.072270006, 0.04172969, -0.076936275, 0.040320776, 0.0, -0.12039111, 0.047865365, -0.08846344, -0.11455479, 0.069083616, -0.06867414, 0.018888807, 0.07884908, -0.067817785, -0.07716585, -0.092913784, -0.09787058, -0.102041535, -0.050615206, 0.078422785, 0.0, -0.07511125, 0.0, -0.06362799, 0.0, 0.0, -0.09865847, 0.0, -0.104764916, 0.051503967, 0.07738922, 0.0, 0.08363557, 0.0, 0.0, 0.06570733, -0.07169256, 0.0, 0.0, 0.0, 0.057265017, -0.088235706, 0.0, -0.115892745, 0.0, 0.063656196, 0.0, -0.104855426, 0.07402682, -0.009727838, 0.07267193, 0.0, -0.06051966, 0.06931032, 0.0, -0.063715786, 0.0, -0.080923975, 0.0477048, 0.0, 0.09845299, -0.021802347, 0.0, 0.0, 0.09029318, 0.07696792, -0.08981582, 0.0, -0.16864435, -0.07874309, 0.0509942, 0.0, 0.0, 0.0, 0.081649326, -0.036858656, -0.0642254, -0.07013724, -0.11734283, -0.040512826, 0.07035623, 0.0, 0.0, -0.08026637, 0.0, 0.06763074, 0.0, 0.07221509, -0.09731373, -0.06021393, -0.06379677, 0.065435186, -0.07878919, -0.10158943, 0.07804538, -0.08601527, 0.0, 0.0, 0.036271784, -0.07564542, 0.07751681, 0.060397916, -0.06498463, 0.0, 0.089057475, -0.039706692, -0.09113499, 0.0, -0.069408566, 0.0, -0.099417396, 0.0, -0.073632844, 0.0, 0.0, 0.0, 0.0, 0.08654675, 0.0, 0.06634147, 0.06673844, 0.058207683, 0.0, -0.10583333, -0.074039236, 0.0, -0.09696338, 0.0815089, -0.09056626, -0.0761685, 0.036269125, 0.0, 0.0337601, 0.061362278, 0.0, 0.0, -0.11620745, 0.028934252, 0.030321004, -0.10599994, 0.012862637, -0.098985955, 0.018409396, -0.06889838, 0.0, 0.028038377, -0.14779249, 0.0, 0.0, 0.0, 0.0, -0.10502431, 0.0, -0.08521544, -0.024334596, -0.07491438, 0.07717569, 0.043570228, 0.0, 0.043325886, 0.0, -0.06592678, 0.04640741, 0.0, 0.0, 0.09022204, -0.06452888, 0.06648634, -0.066246115, 0.0, 0.0, 0.0, 0.10797394, -0.08480563, 0.0, -0.08574981, 0.0, 0.0, -0.014993151, 0.0, 0.0, 0.037478488, 0.0, 0.12389636, 0.0, -0.055457007, -0.094086, 0.0, 0.052673847, -0.06251954, -0.05854507, -0.07271423, 0.047566816, 0.025840431, -0.09641196, 0.04752204, 0.0, 0.06279631, -0.077640556, 0.09079018, -0.037567116, 0.0, 0.08875009, -0.030249877, 0.0, 0.07143525, 0.07563851, -0.047959946, 0.05384422, 0.0, -0.109276414, -0.09538104, 0.07384739, 0.04644167, 0.01944461, 0.0, 0.021341367, -0.12141367, -0.11288768, -0.096369185, 0.059741736, -0.08591256, 0.039434236, -0.09848047, -0.049316816, -0.039702184, -0.06458746, -0.040388074, 0.0, 0.095119655, 0.0, 0.12455212, 0.09743337, 0.080198854, 0.0, 0.0, 0.0, 0.0, 0.056572396, 0.0811717, -0.018149845, 0.0, 0.0, -0.036408067, 0.064766094, 0.14776252, 0.20302133, 0.1863237, 0.18727435, 0.04544005, 0.0, 0.0, -0.09161687, 0.0, 0.062273055, -0.08114915, 0.0, 0.0, 0.0, 0.0, 0.08539808, 0.03904042, 0.0, 0.0, -0.07119008, 0.045143563, 0.07787565, -0.080138974, 0.0, 0.087704256, -0.067576796, 0.0, -0.06830615, 0.0, 0.030538304, -0.06675978, 0.03811563, 0.0, 0.0, 0.0, 0.03246573, 0.0, 0.0, 0.0, 0.0, 0.0, 0.0, -0.05481826, 0.0, 0.0, -0.047781315, -0.1325842, 0.0, 0.0, 0.0, 0.030942714, 0.07359943, 0.20589148, 0.0, 0.0, 0.0, -0.1371917, 0.0, 0.0, 0.0, 0.0, -0.004917077, -0.17147149, -0.031708382, 0.0, 0.0, 0.0, 0.0, 0.0, 0.0, 0.0, 0.0, 0.0, 0.0, 0.0, 0.0, 0.0, 0.0, 0.0, 0.0, 0.0, 0.0, 0.0, 0.0, 0.0, -0.0408286, 0.0, 0.0, -0.038414914, 0.0, 0.0, 0.0, 0.040274475, -0.035928342, 0.0, 0.0, 0.0, 0.0, 0.0, 0.0, 0.0, 0.0, 0.0, 0.0, 0.0644778, 0.05155356, 0.0, 0.0, 0.0, 0.0, 0.0, 0.0, 0.0, 0.0, 0.0, 0.0, 0.0, 0.0, 0.0, 0.0, 0.0, -0.039985433, 0.0, 0.0, 0.0, 0.0, 0.0, 0.0, 0.0, 0.0, 0.0, 0.0, 0.0, 0.0, 0.0, 0.0, 0.0, 0.0, -0.043046244, 0.0, -0.043425683, -0.03744911, 0.0, 0.0, -0.024197038, 0.06790706, 0.0, 0.0, 0.0, 0.0, 0.0, 0.0, 0.0, -0.031181732, 0.0, 0.0, 0.0, 0.0, 0.0, 0.0, 0.0, 0.0, 0.0, 0.0, 0.0, 0.0, 0.0, 0.0, 0.0, 0.0, 0.0, 0.0, 0.0, 0.0, 0.013856596, 0.0, 0.0, 0.0, 0.0, 0.0, 0.0, 0.0, 0.0, 0.0, 0.0, 0.0, 0.0, -0.0752175, 0.0, 0.0, 0.0, 0.0, 0.0, 0.0, 0.0, 0.0, 0.0, 0.0525035, 0.0, 0.0, 0.16474104, 0.0, 0.0, 0.0, 0.0, 0.0, 0.0, 0.0, 0.0, 0.0, 0.0, 0.0, 0.0, 0.0, 0.0, 0.0, 0.0, 0.0, 0.0, 0.0, 0.0, 0.0, 0.0, 0.0, 0.0, 0.0, 0.0, 0.0, 0.0, 0.05975484, 0.0, 0.0, 0.0, 0.0, 0.0, 0.0, -0.04368714, 0.0, 0.0, 0.0, 0.0, 0.0, 0.0, 0.0, 0.0, 0.0, -0.017570779, 0.0, 0.0, 0.0, 0.035975642, 0.0645543, 0.0, 0.08119989, 0.0, 0.0, 0.0, 0.0, 0.0, 0.0, 0.0, 0.0, -0.048043434, 0.0, 0.0, 0.0, 0.0, 0.0, 0.0, 0.0, 0.0, 0.0, 0.0, 0.07544421, -0.031758484, 0.0, -0.033411816, 0.0, 0.0, 0.0, 0.0, 0.0, 0.0, 0.0, 0.0, 0.0, -0.04193327, -0.10800234, 0.0, 0.0, 0.0, 0.0, 0.0, 0.0, 0.0, 0.0, 0.0, 0.0, 0.0, 0.0, 0.0, 0.0, 0.0, 0.0, 0.0, 0.0, 0.0, 0.0, 0.0, 0.0, 0.0, 0.0, 0.0, 0.0, 0.0, -0.03934691, 0.0, 0.0, 0.0, 0.0, 0.0, 0.0, 0.0, 0.0, 0.0, 0.0, 0.0, 0.0, 0.0, 0.0, 0.030863656, 0.033343837, 0.0, 0.0, 0.0, 0.0, 0.0, 0.0, 0.0, 0.036711633, 0.0, 0.0, 0.0, 0.0, 0.0, 0.0, 0.0, 0.0, -0.03391226, 0.0, 0.0, 0.0, 0.0, 0.0, 0.0, 0.0, 0.0, 0.0, 0.0, 0.0, 0.0, 0.0, 0.0, 0.0, 0.0, 0.0, 0.0, 0.04765075, 0.0, 0.0, 0.0, 0.0, 0.18106332, 0.0, 0.0, 0.0, 0.0, 0.0, 0.0, 0.0, -0.0880116, -0.23862459, -0.014782441, 0.0, 0.0, 0.010211057, 0.0, 0.0, 0.0, 0.0, 0.0, 0.0, 0.0, 0.0, 0.0, 0.0, 0.0, 0.0, 0.0, 0.03818173, 0.0, 0.0, 0.0, -0.036665946, 0.0, 0.0, 0.0, 0.0, 0.0, 0.0, 0.0, 0.0, 0.0, 0.0, 0.0, 0.0, 0.0, 0.0, 0.0, 0.0, 0.0, 0.0, 0.0, 0.10755326, 0.0, -0.09319261, 0.0, 0.0, 0.03134572, 0.0, 0.0, 0.0, 0.0, 0.0, 0.0, 0.0, -0.036822368, 0.0, 0.0, 0.0, 0.0, 0.0, 0.0, 0.0, 0.11985353, 0.0, 0.0, 0.0, 0.0, 0.0, 0.0, -0.085445784, -0.07567851, 0.0, 0.035177477, 0.0, 0.0, 0.04677476, 0.0, 0.0, 0.0, 0.0, 0.0, 0.0, 0.0, -0.035957433, 0.0, 0.0, 0.0, 0.0, 0.0, 0.11104245, 0.0, 0.0, 0.0, 0.0, 0.0, 0.0, 0.12539762, 0.0, 0.0, 0.0, 0.0, 0.0, 0.0, 0.0, 0.0, 0.0, 0.0, 0.0, 0.0, 0.04449476, 0.0, 0.0, 0.0, 0.0, 0.12557212, 0.0, 0.0, 0.0, 0.0, -0.014686079, -0.10042017, 0.0, 0.0, 0.0, 0.1285344, 0.0, 0.0, 0.0, 0.0, 0.034313027, 0.0, 0.0, 0.0, 0.0, 0.0, 0.0, 0.0, 0.0, 0.0, 0.0, 0.0, 0.0, 0.0, 0.0, 0.0, 0.0, 0.0, 0.0, 0.0, 0.0, 0.0, 0.0, 0.0, 0.0, 0.0, 0.09110056, 0.0, 0.0, -0.050982267, 0.0, 0.0, 0.0, 0.0, 0.0, 0.0, 0.0, 0.0, 0.0, 0.0, 0.0, 0.0, 0.0, 0.0, 0.08393093, 0.0, 0.0, 0.0, 0.06718521, 0.0, 0.0, 0.0, 0.0, 0.0, 0.0, 0.03360424, 0.0, 0.0, 0.0, 0.0, 0.0, -0.10945876, 0.0, 0.0, 0.0, 0.0, 0.0, 0.0, 0.0, 0.0, 0.035409495, 0.0, 0.0, 0.0, 0.0, 0.0, 0.0, -0.059978873, 0.0, -0.039867558, 0.0, 0.0, 0.0, 0.0, 0.0, 0.0, 0.0, 0.0, -0.03703247, 0.0, 0.056908645, 0.0, 0.0, 0.0, 0.0, 0.0, 0.0, 0.0, 0.0, 0.0, -0.06379791, 0.0, 0.032623276, 0.0, 0.0, 0.0, -0.032384347, 0.0, 0.0, 0.0, 0.0, 0.0, 0.0, 0.0, 0.0, 0.0, 0.0, 0.0, 0.0, 0.0, 0.0, 0.0, 0.0, 0.0, 0.0, 0.0, 0.0, 0.06214327, 0.0, 0.0, 0.0, 0.0, 0.0, 0.0, 0.14822583, 0.14944072, 0.0, 0.0, 0.0, 0.0, 0.0, 0.0, 0.0, 0.0, 0.0, 0.0, 0.0, 0.0, 0.0, 0.0, 0.0, 0.018309027, 0.037068922, 0.0, 0.0, 0.0, 0.0, 0.0, 0.0, 0.0, -0.050226305, -0.042324576, 0.0, -0.046146516, 0.0, 0.0, 0.0, 0.0, 0.0, 0.0, 0.0, 0.0, 0.0, 0.0, 0.0, 0.0, 0.0, 0.0, 0.0, 0.0, 0.0, 0.0, 0.0, 0.0, 0.0, 0.0, 0.0, 0.0, 0.0, 0.0, 0.0, 0.0, 0.0, 0.0, 0.0, 0.0, 0.0, 0.0, 0.051668044, 0.0, 0.0, 0.0, 0.0, 0.0, 0.0, 0.0, 0.0, 0.0, 0.0, 0.0, 0.0, 0.0, 0.0, 0.0, 0.07705566, 0.0, 0.0, 0.17764454, 0.0, 0.0, 0.0, 0.0, 0.0, 0.0, 0.0, 0.0, 0.0, 0.0, 0.0, 0.0, 0.0, 0.0, 0.0, 0.0, 0.0, 0.0, 0.0, 0.0, 0.0, 0.0, 0.0, -0.024562217, 0.0, 0.0, 0.0, 0.0, 0.0, 0.01643791, 0.0, 0.0, 0.0, -0.042719588, 0.0, 0.0, 0.0, 0.0, 0.0, 0.0, 0.0, 0.0, 0.0, 0.0, 0.0, 0.0, 0.0, 0.0, 0.0, 0.0, 0.0, 0.0, 0.0, 0.0, 0.0, 0.0, 0.0, 0.0, 0.0, 0.0, 0.0, 0.0, 0.0, 0.0, 0.0, 0.0, 0.0, 0.0, 0.0, 0.0, 0.0, 0.0, 0.0, 0.093696885, 0.0, 0.0, 0.0, 0.0, 0.0, 0.0, 0.0, 0.0, 0.0, 0.0, 0.0, 0.0, 0.0, 0.0, 0.0, 0.0, 0.0, 0.0, 0.0, -0.053718436, 0.0, 0.0, 0.0, 0.0, -0.06847129, 0.0, 0.0, 0.0, 0.0, 0.0, 0.025814328, 0.0, 0.0, 0.0, 0.0, 0.0, 0.0, 0.0, 0.0, 0.0, 0.0, 0.0, -0.046901103, -0.07302582, -0.15245597, 0.0, 0.0, 0.0, 0.0, 0.0, 0.0, 0.0, 0.0, 0.0, 0.0, 0.0, 0.0, -0.019538425, 0.13452198, 0.019499678, 0.0, 0.042044386, 0.0, 0.0, 0.0, 0.035853654, 0.0, 0.0, 0.0, 0.0, 0.0, 0.0, 0.0, 0.0, 0.0, 0.0, 0.0, 0.0, 0.0, 0.0, 0.0, 0.0, 0.0, 0.0, 0.0, 0.0, 0.0, 0.0, -0.03653212, 0.0, 0.0, 0.0, 0.1135017, 0.0, -0.035729222, 0.0, 0.0, 0.0, -0.058947843, 0.0, 0.0, 0.0, 0.0, 0.021407247, 0.0, 0.0, -0.062466092, 0.0, 0.0, 0.0, 0.0, 0.0, 0.0, -0.05851259, 0.0, 0.0, 0.0, 0.0, 0.0, 0.0, 0.0, 0.0, 0.0, 0.0, 0.06024595, 0.0, 0.0, 0.0, 0.0, 0.08562999, 0.0, 0.0, 0.0, 0.0, 0.0, 0.0, 0.038113162, 0.0, 0.0, 0.0, 0.0, 0.0, 0.0, 0.0, 0.0, 0.0, 0.0, 0.0, 0.034749854, 0.0, 0.0, 0.0, 0.0, 0.0, 0.0, 0.0, 0.0, 0.0, -0.04205112, 0.0, 0.0, 0.042415556, 0.0, 0.0, 0.0, 0.0, 0.0, 0.0, 0.0, 0.0, 0.0, 0.0, 0.08403966, 0.06375658, 0.0, 0.0, 0.08037113, 0.0, -0.017975558, 0.0, 0.0, 0.0, 0.0, 0.0, -0.02425098, -0.013496978, 0.0, 0.041674484, 0.0, 0.0, 0.0, 0.0, 0.0, 0.0, 0.0, 0.0, 0.0, 0.0, 0.0, 0.0, 0.0, 0.0, 0.0, 0.0, 0.0, 0.036921445, -0.050240003, 0.0, 0.0, 0.0, 0.0, -0.03824857, 0.0, 0.0, 0.0, 0.0, 0.0, -0.068826996, 0.0, 0.0, 0.0, 0.0, 0.0, 0.0, 0.0, 0.0, 0.0, 0.0, -0.04739492, 0.0, 0.0, 0.0, 0.0, 0.0, 0.0, 0.0, 0.0, 0.0, 0.0, 0.0, 0.0, 0.0, 0.0, -0.06684631, 0.0, 0.0, 0.0, 0.05471234, 0.0, 0.0, 0.0, 0.0, 0.0, 0.0, 0.0, 0.069639556, 0.0, 0.0, 0.07325516, 0.07947547, -0.050812736, 0.0, 0.0, 0.0, 0.0, 0.0, 0.0, 0.0, 0.0, 0.0, 0.0, 0.0, 0.0, 0.0, 0.0, 0.0, 0.0, 0.0, 0.0, 0.0, 0.0, 0.0, 0.0, 0.0, 0.0, 0.0, 0.0, 0.0, 0.0, 0.0, 0.0, 0.0, -0.040518656, 0.0, 0.0, 0.0, 0.0, 0.0, 0.0, 0.0, 0.0, -0.04138939, 0.0, 0.0, 0.0, 0.0, 0.0, 0.0, -0.041930605, 0.0, 0.0, 0.0, 0.0, 0.0, 0.0, 0.0, 0.0, 0.0, 0.0, 0.0, 0.0, 0.0, 0.0, 0.0, 0.0, 0.0, 0.0, 0.0, 0.0, -0.037446424, 0.0, 0.0, 0.0, 0.0, 0.0, 0.0, 0.0, 0.0, 0.04958159, 0.0, 0.0, 0.0, 0.0, 0.0, 0.0, 0.0, 0.0, 0.0, 0.0, 0.0, 0.0, 0.0, 0.0, -0.0802107, 0.0, -0.023090772, 0.0, 0.0, 0.0, 0.0, 0.0, 0.047812678, 0.0, 0.0, 0.0, 0.0, 0.0, -0.06757647, -0.16278085, 0.0, 0.0, 0.0, 0.0, 0.0, 0.0, 0.0, 0.054514293, 0.041300613, -0.13929021, 0.0, 0.0, 0.032901503, 0.023542734, 0.0, 0.008952148, 0.05535873, 0.0, 0.0, 0.0, 0.0, 0.0, 0.022676507, 0.0, -0.06740252, 0.0, 0.0, 0.0, 0.0, 0.0, 0.0, 0.0, 0.07951135, 0.05329833, 0.17043486, 0.04170426, 0.0, 0.0, 0.0, 0.01869589, 0.0, 0.0, 0.0, 0.0, 0.0, 0.0, 0.0, 0.0, 0.0, 0.0, 0.0, 0.0, 0.0, 0.0, 0.16070287, 0.052970316, 0.0, 0.0, -0.04847066, 0.0, 0.0, 0.027711168, 0.0, 0.0, 0.0, 0.0, -0.07671748, 0.0, 0.0, 0.0, 0.0, 0.0, 0.0, 0.0, 0.0, 0.0, 0.0, 0.0, 0.0, 0.0, 0.0, 0.0, 0.0, 0.0, -0.052563135, 0.0, 0.0, 0.0, 0.043405086, 0.0, 0.0, 0.0, 0.0, 0.0, 0.0, 0.0, 0.0, 0.0, 0.0, 0.0, 0.0, 0.0, 0.0, 0.0, 0.0, 0.0, 0.0, 0.0, 0.0, 0.0, 0.0, 0.0, 0.0, 0.0, 0.0, 0.0, 0.0, 0.0, 0.0, 0.0, 0.0, 0.0, 0.0, 0.0, 0.0, 0.0, 0.0, 0.0, 0.0, 0.0, 0.0, 0.0, 0.0, 0.0, 0.0, 0.0, 0.0, 0.0, 0.0, 0.0, 0.0, 0.0, 0.0, 0.0, 0.0, 0.0, 0.0, 0.0, 0.0, 0.0, 0.0, 0.0, 0.0, 0.0, 0.0, 0.0, 0.0, 0.0, 0.0, 0.0, 0.0, 0.0, 0.0, 0.0, 0.0, 0.0, 0.0, 0.0, 0.0, 0.0, 0.0, 0.0, 0.0, 0.09766132, 0.0, 0.0, 0.0, 0.0, 0.0, 0.0, 0.0, 0.0, 0.0, 0.0, 0.0, 0.0, 0.0, 0.0, 0.0, 0.0, 0.0, 0.12535967, -0.040486924, 0.0, 0.0, 0.0, 0.0, 0.0, 0.0, 0.0, 0.0, 0.0, 0.0, 0.0, -0.03698553, 0.0, 0.0, 0.0, 0.0, 0.0, 0.0, 0.0, 0.0, 0.0, 0.0, 0.0, 0.0, 0.0, -0.040877104, 0.0, 0.0, 0.0, 0.0, 0.0, 0.0, 0.0, 0.0, 0.0, 0.0, 0.0, 0.0, 0.0, 0.0, 0.0, 0.0, 0.0, 0.0, 0.0, 0.034862142, 0.0, 0.0, 0.0, 0.0, 0.0, 0.042590223, 0.0, 0.0, 0.0, 0.0, 0.0, 0.0, 0.0, 0.0, 0.0, 0.0, 0.0, 0.0, 0.0, -0.02483465, -0.05042462, 0.0, 0.0, 0.0, 0.0, 0.0, 0.1537341, 0.0, 0.0, 0.0, 0.0, 0.0, 0.0, -0.052286163, 0.0, 0.0, 0.0, -0.05086126, 0.0, 0.0, 0.07621399, 0.0, -0.09077069, 0.0, 0.0, -0.044268925, 0.0, 0.0, 0.0, 0.0, 0.0444461, 0.0, 0.0, 0.0, 0.0, 0.042426094, 0.0, 0.0, 0.0, 0.0, 0.0, 0.0, 0.0, 0.0, 0.0, 0.0, 0.0, 0.0, 0.0, -0.050947223, 0.0, 0.0, 0.0, 0.0, 0.0, 0.0, 0.0, 0.0, 0.0, 0.0, 0.0, 0.0, 0.0, 0.0, 0.0, 0.0, 0.0, 0.0, 0.0, 0.0, 0.0, 0.0, 0.0, 0.0, 0.0, 0.0, 0.0, -0.11375392, 0.0, -0.052515484, 0.0, 0.0, 0.0, 0.0, 0.0, 0.0, 0.0, 0.0, -0.03549076, 0.0, 0.0, 0.0, 0.0, 0.0, 0.0, 0.0, 0.0, 0.0, 0.0, 0.0, 0.0, 0.0, 0.0, 0.0, 0.0, 0.0, 0.0, 0.0, 0.0, 0.0, -0.04286968, 0.0, 0.0, 0.0, 0.0, 0.0, 0.0, 0.0, 0.0, 0.0, 0.0, 0.0, 0.0, 0.0, 0.0, 0.0, 0.06285855, 0.0, 0.0, 0.0, 0.0, 0.06511113, 0.0, 0.0, 0.0, 0.0, 0.0, 0.0, 0.0, 0.0, 0.0, 0.0, 0.0, -0.0350589, 0.0, 0.0, -0.035168953, 0.0, 0.0, 0.0, 0.0, 0.0, 0.0, 0.0, 0.0, 0.0, 0.0, 0.0, 0.0, 0.040198475, 0.0, 0.0, 0.0, 0.0, 0.0, -0.040961854, 0.0, 0.0, -0.03850898, 0.0, 0.0, 0.0, 0.0, -0.04149958, 0.0, -0.039553937, 0.0, 0.0, 0.0, -0.042060897, 0.0, 0.0, 0.0, 0.0, 0.0, 0.0, 0.0, 0.0, 0.0, 0.0, 0.0, -0.03133889, 0.050326448, 0.0, 0.0, 0.0, 0.0, 0.0, 0.0, 0.0, 0.0, 0.0, 0.0, 0.0, 0.0, -0.041563336, -0.04715311, 0.0, 0.0, 0.0, 0.0, 0.0, 0.0, -0.04660346, 0.0, 0.0, 0.0, 0.0, 0.0, 0.06951487, 0.0, 0.0, 0.0, 0.0, 0.0, 0.0, 0.0, 0.0, 0.0, 0.0, 0.0, 0.0, 0.0, 0.0, 0.0, 0.0, 0.0, 0.0, 0.0, 0.0, 0.0, 0.0, -0.03755799, 0.0, 0.0, 0.0, 0.0, 0.0, 0.0, 0.0, 0.0, 0.0, 0.0, 0.0, 0.0, 0.0, 0.0, 0.0, 0.0, 0.0, 0.0, 0.0, 0.0, 0.0, 0.0, 0.0, 0.024853628, 0.0, 0.0, 0.0, 0.0, 0.0, 0.0, 0.0, 0.0, 0.0, 0.0, 0.0, 0.0, 0.0, 0.0, 0.0, 0.0, 0.03806113, 0.0, 0.0, -0.045039386, 0.0, -0.05417984, 0.0, 0.0, 0.0, 0.015102264, 0.0, -0.06870248, 0.0, 0.0, 0.0, 0.0, 0.0, 0.0, 0.0, 0.0, 0.0, 0.0, 0.0, 0.0, 0.0, 0.0, 0.0, 0.0, 0.0, 0.0, 0.0, 0.0, 0.0, 0.108345926, 0.0, 0.0, 0.0, 0.0, 0.0, 0.0, 0.0, 0.0, 0.0, 0.0, 0.0, 0.0, 0.0, 0.0, 0.0, 0.0, 0.0, 0.0, 0.0, 0.0, 0.0, 0.0, 0.0, 0.0, -0.052430138, 0.0, 0.0, 0.0, 0.0, 0.0, -0.05484511, 0.0, 0.0, 0.04816478, 0.0, 0.0, 0.0, 0.0, 0.0, 0.0, 0.08116529, 0.0, 0.0, 0.0, 0.0, 0.0, 0.0, 0.0, 0.0, 0.09518796, 0.0, 0.0, 0.0, 0.0, 0.0, 0.0, 0.0, 0.055217486, 0.039761867, 0.0, 0.0057791984, 0.0, 0.0, 0.0, -0.025529712, -0.06986135, 0.0, 0.0, 0.0, 0.0, 0.0, 0.0, 0.0, 0.0, -0.014480373, 0.0, 0.044305522, 0.0, 0.0, 0.0, 0.0, 0.0, 0.0, 0.0, 0.0, 0.0, 0.0, -0.02541303, -0.019699996, 0.0, 0.0, 0.0, 0.0, 0.0, 0.0, 0.0, 0.0, 0.0, 0.0, 0.0, -0.040575255, -0.04134039, 0.0, 0.0, 0.0, 0.0, 0.0, 0.0, 0.0, 0.0, 0.0, 0.0, 0.027785046, 0.0, 0.0, 0.0, 0.0, 0.0, 0.0, 0.0, 0.0, 0.0, 0.0, 0.0, 0.0, 0.0, 0.0, 0.0, 0.0, 0.0, 0.0, 0.0, 0.0, 0.0, 0.0, 0.0, 0.0, 0.0, 0.0, 0.0, 0.0, 0.0, 0.0, 0.0, 0.0, 0.0, 0.0, 0.046824962, 0.0, 0.0, 0.0, -0.03366111, 0.0, 0.0, 0.0, 0.0, 0.0, 0.0, 0.0, 0.0, 0.0, 0.0, 0.0, -0.04314961, 0.0, 0.0, 0.043129872, 0.0, 0.0, -0.047132444, 0.028757593, 0.0, -0.10443931, 0.0, 0.0, 0.0, 0.0, 0.0, 0.0, 0.0, 0.0, 0.0, 0.0, 0.0, 0.0, 0.0, 0.0, 0.0, 0.0, 0.0, 0.0, 0.0, 0.0, 0.0, 0.0, 0.0, 0.0, 0.0, 0.0, 0.0, 0.0, 0.0, 0.0, 0.0, 0.0, 0.0, 0.0, -0.045198146, 0.008647191, 0.0, 0.0, 0.0, 0.0, 0.0, 0.0, 0.0, 0.0, 0.0, 0.062553294, 0.0, 0.07825598, 0.0, 0.0, 0.0, 0.027449107, 0.0, 0.0, 0.0, 0.0, 0.0, 0.0, 0.0, 0.0, 0.0, 0.0, 0.0, 0.0, 0.0, 0.0, 0.0, 0.0, 0.0, 0.04133732, 0.0, 0.0, 0.0, 0.0, 0.0, 0.0, 0.0, 0.0, 0.0, 0.0, -0.012300336, 0.0, 0.0, 0.0, 0.0, 0.0, 0.0, 0.0, 0.0, 0.0, 0.0, 0.035367496, 0.0, 0.0, 0.0, 0.0, 0.0, 0.0, 0.0, 0.0, 0.0, -0.049196795, 0.0, -0.106865175, 0.0, -0.080025315, 0.0, 0.0, 0.0, 0.0, 0.0, 0.0, 0.10208999, 0.0, 0.11762112, 0.13252826, 0.06484592, 0.0, 0.0, 0.0, 0.0, 0.0, 0.0, 0.0, 0.0, 0.0, 0.0, 0.0, 0.0, 0.0, 0.0, 0.0, 0.0, 0.0, 0.0, 0.0, 0.0, 0.0, 0.0, 0.0, -0.060586188, 0.0, 0.0, 0.0, 0.0, 0.0, 0.0, 0.0, 0.0, 0.0, 0.0, -0.053799253, 0.0, -0.019161018, 0.0, 0.0, 0.0, 0.0, 0.0, 0.0, 0.0, 0.0, 0.0, 0.0, -0.04065631, -0.044172395, -0.04500004, 0.0, 0.0, 0.0, 0.0, 0.0, 0.0, 0.0, 0.0, 0.0, 0.0, 0.0, 0.07876728, -0.054292757, 0.11701008, 0.16540638, 0.0, 0.0, -0.026982268, 0.0, 0.0, 0.0, 0.0, 0.0, -0.065564714, 0.08379356, 0.0, 0.0, 0.0, 0.0, -0.049441274, 0.0, 0.0, 0.0, 0.0, 0.0, 0.0, 0.0, 0.0, 0.0, 0.0, 0.0, 0.0, 0.034771636, 0.0, 0.0, 0.0, 0.066927776, 0.0, 0.0, 0.0, 0.0, 0.0, 0.0, 0.0, 0.0, 0.0, 0.0, 0.0, 0.0, 0.0, 0.0, -0.037714962, 0.0, 0.0, 0.0, 0.0, 0.0, 0.0, 0.0, 0.0, 0.0, 0.0, 0.0, 0.0, 0.0, 0.0, 0.0, 0.0, 0.0, 0.0, 0.0, 0.0, 0.0, -0.12217563, 0.0, 0.0, 0.0, 0.0, -0.12583756, -0.13689987, 0.0, 0.0, 0.0, 0.0, 0.0, 0.0, 0.0, 0.0, 0.0, 0.0, 0.0, 0.0, 0.0, 0.0, 0.0, 0.0, 0.0, 0.0, 0.0, 0.0, 0.0, 0.0, 0.0, 0.0, 0.0, 0.0, 0.0, 0.0, 0.0, 0.0, 0.0, 0.0, 0.0, 0.0, 0.0, 0.0, 0.0, 0.0, 0.0, 0.0, 0.0, 0.0, -0.041080136, 0.0, 0.0, 0.0, 0.0, 0.0, 0.0, 0.0, 0.0, 0.0, -0.056285202, 0.0, 0.0, 0.0, 0.0, 0.0, 0.0, 0.0, 0.0, 0.0, 0.0, 0.0, 0.0, 0.0, 0.0, 0.0, 0.0, 0.0, 0.0, 0.0, 0.0, 0.0, 0.0, 0.0, -0.042400923, 0.0, 0.0, 0.0, 0.0, 0.0, 0.0, 0.0, 0.0, -0.039963853, 0.0, 0.0, 0.0, 0.0, 0.0, 0.0, -0.07577772, 0.11384471, 0.0, 0.095375575, 0.0, 0.0, 0.0, 0.0, 0.028447427, 0.0, -0.02719216, 0.0, 0.0, 0.0, 0.0, 0.0, 0.0, 0.0, 0.0, 0.0, -0.033676203, 0.0, 0.0, 0.0, 0.0, 0.0, 0.0, 0.0, 0.0, 0.0, 0.0, -0.097849816, 0.0, 0.0, 0.0, 0.0, 0.0, 0.0, 0.0, 0.0, 0.04031822, 0.0, 0.0, 0.0, 0.0, 0.0, 0.0, 0.0, 0.0, 0.0, 0.0, 0.18449193, 0.0, 0.0, 0.0, 0.07141294, 0.0, -0.041399725, 0.0, -0.037955053, 0.0, 0.0, -0.013564692, 0.0, 0.0, 0.0, 0.0, 0.0, 0.0, -0.03471002, -0.03006959, 0.0, 0.0, 0.0, 0.0, 0.18830815, 0.0, 0.0, 0.0, -0.01327422, 0.0, 0.0, 0.0, 0.0, 0.0, 0.0, 0.0, 0.0, 0.0, 0.0, 0.0, 0.0, 0.0, 0.0, 0.0, -0.041387335, 0.0, -0.035984643, 0.0, -0.107214086, 0.0, -0.022060622, 0.0, 0.0, 0.0, 0.0, 0.0, 0.0, 0.0, 0.0, 0.0, 0.0, 0.0, 0.0, 0.0, 0.0, 0.0, -0.1671275, 0.0, 0.0, 0.0, 0.0, 0.0, 0.0, 0.0, 0.0, 0.0, 0.0, 0.0, 0.0, 0.0, 0.0, 0.0, 0.0, 0.0, 0.0, -0.068094716, 0.0, 0.0, 0.0, 0.0, 0.0, 0.0, -0.024506858, 0.0, 0.0, 0.0, 0.0, 0.0, 0.0, 0.0, 0.0, 0.0, 0.0, 0.0, 0.0, -0.075553425, 0.0, 0.0, 0.0, -0.019369455, -0.021696191, 0.0, 0.0, 0.0, 0.0, 0.0, 0.0, 0.0, 0.0, 0.0, 0.0, 0.0, 0.0, 0.0, 0.0, 0.07130418, 0.0, 0.0, -0.10105564, 0.0, 0.0, 0.0, 0.0, 0.0, 0.0, 0.109127685, 0.0, -0.0842012, 0.0, 0.0, 0.0, 0.0, 0.0, 0.0, 0.0, 0.0, -0.040158853, 0.0, 0.0, 0.0, 0.0, 0.0, 0.0, 0.0, -0.040734258, 0.0, 0.0, 0.0, 0.0, 0.0, 0.0, 0.0, 0.040225532, 0.0, 0.0, 0.0, 0.0, 0.0, 0.0, 0.0, 0.0, 0.0, 0.0, 0.04835754, 0.0, 0.0, -0.028150875, -0.076126195, 0.0, -0.029700212, -0.037642952, -0.031352222, 0.0, 0.0, 0.0, 0.0, 0.0, 0.0, 0.0, 0.0, 0.0, 0.0, 0.0, 0.0, -0.046941027, 0.0, 0.0, 0.0, 0.0, 0.0, 0.0, 0.0, 0.0, 0.04733699, 0.0, 0.0, 0.21871595, 0.0, 0.0, -0.033795625, -0.12540156, 0.0, 0.0, 0.0, -0.1857536, -0.049708407, 0.01575268, 0.0, 0.0, 0.0, 0.0, 0.0, 0.0, 0.0, 0.0, 0.0, 0.0, 0.0, 0.0, 0.0, 0.0, 0.0, 0.0, 0.0, 0.0, 0.0, 0.0, 0.0, 0.0, 0.0, 0.0, 0.0, 0.0, 0.0, 0.0, 0.0, 0.0, 0.0, -0.084887706, 0.0, 0.0, 0.0, 0.0, 0.0, 0.0, 0.0, -0.08119533, 0.0, 0.0, 0.0, 0.0, 0.11152381, 0.0, 0.0, 0.0, 0.0, 0.0, 0.0, 0.0, 0.0, 0.0, 0.0, 0.0, 0.0, -0.01605403, 0.0, 0.0, 0.0, 0.0, 0.0, 0.0, 0.0, 0.0, 0.0, 0.0, 0.0, 0.0, 0.0, 0.0, 0.0, 0.0, 0.0, 0.0, 0.040045433, 0.0, 0.0, 0.0, 0.0, -0.042912688, 0.0, 0.0, 0.0, 0.0, 0.0, 0.0, 0.0, 0.0, 0.0, 0.038555432, -0.04284066, 0.0, 0.0, 0.0, 0.0, -0.044672962, 0.0, 0.0, 0.0, 0.0, 0.0, 0.0, 0.0, 0.0, 0.0, 0.111831084, 0.0, 0.0, 0.0, 0.0, 0.0, 0.0, 0.0, 0.0, -0.09764815, -0.035183765, -0.029604556, 0.0, 0.0, 0.0, 0.0, 0.0, 0.0, 0.0, 0.0, 0.0, 0.0, 0.0, 0.0, -0.055590507, 0.0, 0.0, 0.0, 0.0, 0.0, 0.0, 0.0, 0.09784654, 0.0, 0.0, 0.0, 0.0, 0.0, 0.0, 0.0, 0.0, 0.0, -0.020124726, 0.0, 0.0, 0.0, 0.0, 0.0, 0.0, 0.0, 0.0, 0.0, 0.0, 0.0, 0.0, 0.0, 0.0, 0.0, 0.0, 0.0, 0.0, 0.0, 0.0, 0.0, 0.044681635, 0.0, 0.0, 0.0, 0.0, 0.0, 0.0, 0.0, 0.0, 0.0, 0.0, 0.0, 0.0, 0.0, 0.0, 0.0, 0.0, 0.0, 0.0, 0.0, 0.0, 0.0, 0.0, 0.0, 0.0, 0.0, 0.0, 0.0, 0.0, 0.0, 0.0, 0.0, 0.0, 0.0, 0.0, 0.0, -0.092838086, 0.0, -0.05229893, 0.0, 0.0, 0.0, 0.0, 0.0, 0.0, 0.0, 0.0, 0.0, 0.0, 0.0, 0.0, 0.0, 0.0, 0.0, 0.0, 0.0, 0.034525726, 0.0, 0.0, 0.0, 0.0, 0.0, 0.0, 0.0, 0.0, 0.0, 0.0, 0.0, 0.0, -0.048910648, 0.0, 0.0, 0.0, 0.0, 0.0, 0.0, 0.0, 0.0, 0.0, 0.0, 0.0, 0.0, 0.0, 0.0, 0.0, 0.083074965, 0.0927124, -0.014597202, -0.15452227, 0.0, 0.0, -0.026888588, -0.031947073, -0.035289764, -0.028373368, -0.010263841, 0.0, 0.0, 0.0, 0.0, 0.0, -0.03366919, -0.04291328, -0.013971505, 0.0, 0.0, 0.0, 0.0, 0.0, 0.0, 0.0, 0.0, 0.0, -0.06315843, 0.0, 0.0, 0.0, 0.0, 0.0, -0.08929373, 0.0, 0.0, 0.061620716, 0.0, 0.0, 0.0, 0.0, 0.0, 0.0, 0.0, 0.0, 0.0, 0.0, 0.0, 0.0, 0.0, 0.0, 0.051391404, 0.0, 0.0, 0.0, 0.0, 0.0, 0.0, 0.0, 0.043991715, 0.0, 0.0, 0.0, 0.0, 0.043364763, 0.0, -0.034887664, 0.0, 0.0, 0.0, 0.0, 0.0, 0.0, 0.0, 0.0, 0.0, 0.0, 0.0, 0.0, 0.0, 0.0, 0.0, 0.0, 0.0, 0.0, 0.0, 0.0, 0.0, 0.0, 0.0, 0.0, 0.0, 0.0, -0.062810935, 0.039786976, 0.03684224, 0.0, 0.0, -0.031236004, -0.09024147, -0.014642437, 0.0, 0.10649886, 0.0, 0.0, 0.0, 0.0, 0.0, 0.0, 0.0, 0.0, 0.0, 0.0, 0.02235718, 0.0, 0.0, 0.0, -0.02487428, 0.0, -0.03941522, 0.0, 0.0, 0.0, 0.0, 0.0, 0.0, 0.0632809, 0.0, 0.0, 0.0, 0.0, 0.0, 0.0, 0.0, 0.0, 0.0, 0.0, 0.0, 0.0, 0.0, -0.02746229, 0.0, 0.0, -0.05958121, 0.0, 0.042126082, 0.0, 0.0, 0.0, 0.0, 0.0, 0.035569757, 0.0, 0.0, 0.0, 0.05811902, 0.0, 0.0, -0.0767878, -0.060393803, 0.0, 0.0, 0.0, 0.0, 0.0, 0.0, 0.0, 0.0, 0.0, 0.0, 0.0, 0.0, 0.0, 0.0, 0.0, 0.0, 0.0, 0.0, 0.0, 0.0, 0.0, 0.0, 0.0, 0.0, 0.0, 0.0, 0.0, 0.0, 0.0, 0.0, -0.015218849, -0.14811799, 0.0, 0.0, 0.0, 0.0, 0.0, 0.0, 0.0, 0.0, 0.03242025, 0.0, 0.0, 0.0, 0.0, 0.0, 0.0, 0.0, 0.0, 0.0, 0.0, 0.0, 0.0, 0.0, 0.0, 0.0, 0.0, 0.0, 0.0, 0.0, 0.0, 0.0, 0.0, 0.0, 0.0, 0.0, -0.043110233, 0.0, 0.0, 0.0, 0.0, -0.04869666, 0.0, 0.0, 0.0, 0.0, 0.0, 0.0, 0.0, 0.0, 0.0, 0.027964285, 0.0, 0.0, 0.0, 0.0, 0.07437343, 0.05430665, -0.004569316, 0.0, 0.0714577, 0.0, 0.0, 0.0, 0.0, 0.0, 0.0, 0.0, 0.0, 0.015266563, 0.0, 0.0, 0.0, -0.0444121, 0.0, 0.0, 0.0, 0.0, 0.0, -0.040217824, 0.0, 0.0, 0.0, 0.0, 0.0, 0.0, 0.0, 0.0, 0.0, 0.0, 0.0, 0.0, 0.0, 0.0, 0.0, 0.0, 0.0, 0.0, 0.0, 0.0, 0.0, 0.0, 0.0, 0.0, 0.0, 0.0, 0.0, 0.0, 0.0, 0.0, 0.0, 0.0, 0.0, 0.0, 0.0, 0.0, 0.0, 0.0, 0.0, 0.0, 0.0, 0.0, 0.0, 0.0, 0.0, 0.0, 0.0, 0.014237659, 0.015059738, 0.0, 0.0, 0.03472195, 0.0, 0.0, 0.03803669, 0.0, 0.0, 0.035255827, 0.0, 0.0, 0.0, 0.0, -0.043579143, 0.0, 0.0, 0.0, 0.0, 0.0, 0.035324473, 0.0, 0.0, 0.0, -0.039493006, 0.0, 0.0, 0.0, 0.0, 0.0, 0.0, 0.0, 0.0, 0.0, 0.0, 0.0, 0.0, -0.009917132, 0.0, 0.0, 0.0, 0.0, 0.03490929, 0.0, 0.0, 0.0, 0.0, 0.0, 0.0, 0.0, 0.0, 0.0, 0.0, 0.0, 0.15447561, 0.0, 0.054442212, 0.0, 0.0, 0.0, 0.0, 0.0, 0.0, 0.0, 0.0, 0.0, -0.060804043, 0.0, 0.0, 0.0, 0.0, 0.0, 0.0, 0.0, 0.0, 0.0, 0.0, 0.0, 0.0, 0.0, 0.0, 0.0, 0.0, 0.0, 0.0, 0.0, 0.0, 0.0, -0.102410346, 0.0, 0.0, 0.067751184, 0.0, 0.0, 0.0, 0.0, 0.0, 0.0, 0.0, 0.0, 0.0, 0.0, 0.0, -0.0043087197, -0.005040803, 0.071510054, 0.0, 0.0, 0.0, 0.0, 0.0, 0.0, -0.09131268, 0.0, 0.0, 0.0, 0.0, 0.0, 0.0, 0.0, 0.0, 0.0, 0.0, 0.0, 0.0, 0.05373053, 0.0, 0.0, 0.1085238, 0.0, 0.0, 0.0, 0.0, 0.0, 0.0, 0.0, 0.0, 0.0, 0.0, 0.0, 0.0, 0.0, 0.0, 0.0, -0.07772963, 0.11265583, 0.0, 0.0, 0.0, 0.0, 0.0, 0.0, 0.0, 0.0, 0.0, 0.0, 0.0, 0.0, 0.0, 0.0, 0.0, 0.0, 0.0, 0.0, 0.0, 0.0, 0.090841025, 0.0, 0.0, 0.0, 0.0, 0.0, 0.0, 0.0, 0.0, 0.0, 0.0, 0.0, 0.0, 0.0, 0.0, 0.0, 0.0, 0.0, 0.0, 0.0, 0.0, 0.0, 0.0, 0.0, 0.0, 0.12883218, 0.0, 0.0, 0.0, 0.0, 0.0, 0.0, 0.0, 0.0, 0.0, 0.045906384, 0.0, 0.0, 0.0, 0.0, 0.0, 0.0, 0.0, 0.0, 0.0, 0.0, 0.0, 0.0, 0.0, -0.03725134, 0.0, 0.0, 0.0, 0.0, 0.0, 0.0, 0.0, 0.0, 0.0, 0.0, 0.0, 0.0, 0.0, 0.0, 0.0, 0.0, 0.0, 0.0, 0.040238038, 0.0, 0.0, 0.0, 0.0, 0.0, 0.0, 0.0, 0.0, 0.0, 0.0, 0.0, 0.0, 0.0, 0.0, 0.0, 0.0, 0.0, 0.0, 0.06505286, 0.089352876, 0.0, 0.0, 0.0, 0.0, 0.0, -0.075569615, 0.042189974, 0.0, 0.0, 0.0, 0.0, 0.0, 0.0, 0.0, 0.0, 0.0, 0.0, 0.0, 0.0, 0.0, 0.0, 0.0, 0.0, 0.0, 0.0, 0.0, 0.0, 0.041152015, 0.0, 0.0, 0.0, 0.0, 0.0, 0.0, -0.04060752, 0.0, 0.0, 0.0, 0.0, 0.0, 0.0, 0.0, 0.0, 0.0, 0.0, 0.0, 0.0, -0.041549444, 0.0, 0.0, 0.0, 0.0, 0.0, 0.0, 0.0, 0.0, 0.0, 0.0, 0.0, 0.0, 0.0, 0.0, 0.0, 0.0, 0.0, 0.0, 0.0, 0.0, 0.0, 0.0, 0.0, 0.0, 0.0, 0.0, 0.0, 0.0, 0.0, 0.0, 0.0, 0.0, 0.0, 0.0, 0.0, 0.0, 0.0, 0.0, 0.0, 0.0, 0.0, 0.0, 0.0, 0.0, 0.0, 0.03934866, 0.0, 0.0, 0.062252298, 0.0, 0.0, 0.0, 0.0, 0.0, 0.0, 0.0, 0.0, 0.0, 0.0, 0.0, 0.0, 0.0, 0.0, 0.0, 0.0, 0.0, 0.0, 0.0, 0.0, 0.04432546, 0.0, 0.0, 0.0, 0.0, 0.0, 0.124419644, 0.0, 0.0, 0.0, 0.0, 0.0, 0.0, 0.0, 0.0, 0.0, 0.0, 0.0, 0.0, 0.0, 0.0, 0.0, -0.017178908, 0.0, 0.0, 0.0, 0.0, 0.0, 0.0, 0.0, 0.0, 0.0, 0.0, 0.0, 0.0, 0.0, 0.0, 0.0, 0.19235589, 0.0, 0.0, 0.0, 0.0, 0.0, 0.0, 0.0, 0.0, 0.0, -0.097943105, 0.0, 0.0, 0.0, 0.0, 0.0, 0.0, 0.0, 0.0, 0.0, 0.0, 0.0, 0.0, 0.0, 0.0, 0.0, 0.0, 0.0, 0.0, 0.0, 0.0, 0.0, 0.0, 0.0, 0.0, 0.0, 0.0, 0.0, 0.0, 0.018095257, 0.0, 0.0, 0.0, 0.0, 0.0, 0.0, 0.0, 0.0, 0.0, 0.0, 0.0, 0.0, 0.0, 0.0, 0.0, 0.1572285, 0.0, 0.0, 0.0, 0.0, 0.0, 0.0, 0.0, 0.0, 0.0, 0.0, 0.03869868, 0.0, 0.0, 0.0, 0.0, 0.0, 0.0, 0.0, 0.0, 0.0, 0.0, 0.0, 0.0, 0.0, 0.0, 0.0, 0.0, 0.0, 0.0, 0.0, 0.0, 0.0, -0.037640564, 0.0, 0.0, 0.0, 0.0, -0.06602903, 0.0, 0.0, 0.0, 0.0, 0.0, 0.0, 0.0, 0.0, 0.0, 0.0, 0.0, 0.0, 0.0, 0.0, 0.0, 0.0, 0.0, 0.0, -0.041654415, 0.0575692, 0.0, 0.0, -0.032970153, 0.0, 0.0, 0.0, 0.0, 0.0, 0.0, 0.0, 0.0, 0.0, 0.0, 0.0, 0.0, 0.0, 0.0, 0.0, 0.0, 0.0, 0.0, 0.0, 0.0, -0.016512327, 0.0, 0.0, 0.0, 0.0, 0.0, 0.0, 0.0, 0.0, 0.0, 0.0, 0.0, 0.0, 0.0, 0.0, 0.0, -0.05091106, 0.0, 0.0, 0.0, 0.0, 0.0, 0.0, 0.0, 0.0, 0.0, 0.0, 0.0, 0.0, 0.0, 0.0, 0.0, -0.04398277, 0.0, -0.024027081, 0.0, 0.0, 0.0, 0.0, 0.037041802, 0.0, 0.0, 0.0, 0.0, 0.0, 0.0, -0.08412303, 0.0, 0.0, 0.0, 0.0, 0.0, 0.052555945, 0.0, 0.0, 0.0, 0.0, 0.0, 0.0, 0.0, 0.0, 0.0, 0.0, 0.0, 0.0, 0.0, 0.0, 0.0, 0.0, 0.0, 0.0, 0.0, 0.0, 0.0, 0.0, 0.0, 0.0, 0.0, 0.0, 0.0, 0.0, 0.0, 0.0, 0.0, 0.028347867, 0.0, 0.0, 0.111893795, 0.0, 0.0, 0.0, 0.0, 0.0, 0.0, 0.0, 0.0, 0.0, 0.0, 0.0, 0.0, 0.0, 0.0, 0.0, 0.0, 0.0, 0.0, -0.050356194, 0.0, -0.047536757, 0.0, 0.0, 0.0, 0.0, 0.0, 0.078588545, 0.10174012, 0.0, 0.0, 0.0, 0.0, 0.0, -0.041425277, 0.0, 0.0, 0.0, -0.038302973, 0.0, 0.0, 0.026611107, 0.0, 0.0, 0.0, 0.054989748, 0.0, 0.0, 0.0, 0.0, 0.0, 0.0, 0.0, 0.0, 0.0, 0.0, 0.0, 0.0, 0.0, 0.0, 0.0, 0.0, 0.0, 0.0, 0.0, 0.0, 0.0, 0.0, 0.0, 0.0, 0.0, 0.0, 0.0, 0.0, -0.08183142, 0.0, 0.0, 0.0, 0.0, 0.0, 0.0, 0.0, 0.0, 0.0, 0.0, 0.0, 0.0, -0.02870136, 0.0, 0.0, 0.0, 0.0, 0.0, 0.0, 0.0, -0.07784362, 0.0, -0.019945273, 0.06044437, 0.0, 0.0, 0.0, 0.0, 0.0, 0.0, 0.0, 0.0, 0.0, 0.0, 0.0, 0.0, 0.0, -0.054390237, 0.0, 0.0, 0.099283464, 0.0, 0.0, 0.0, 0.0, 0.0, 0.0, 0.0, 0.0, 0.0, 0.0, 0.0, 0.0, 0.0, 0.0, 0.0, 0.0, 0.0, 0.0, 0.0, 0.0, 0.0, 0.02823177, 0.0, 0.0, 0.0, 0.0, 0.0, 0.0, 0.0, 0.0, 0.0, 0.0, 0.0, 0.0, 0.0, 0.0, 0.0, 0.0, 0.0, 0.0, 0.0, 0.0, 0.0, 0.0, 0.0, 0.0, 0.0, 0.0, -0.05127152, 0.0, 0.0, 0.0, 0.0, 0.0, 0.0, 0.0, 0.0, 0.0, 0.0, 0.0, 0.0, 0.0, 0.0, 0.0, 0.0, 0.0, 0.0, 0.0, 0.0, 0.0, 0.0, 0.0, 0.063716315, 0.0, 0.0, 0.0, 0.0, 0.0, 0.0, 0.0, 0.0, 0.0, 0.0, -0.0449772, 0.0, 0.0, -0.042603835, 0.0, -0.027865069, 0.0, 0.0, 0.0, 0.0, 0.0, 0.0, 0.0, 0.0, 0.0, 0.05189625, -0.043245096, 0.0, 0.0, 0.0, 0.0, 0.0, 0.0, 0.0, 0.06622703, 0.0, 0.0, 0.0, 0.0, 0.0, 0.0, 0.0, 0.0, 0.0, 0.0, 0.0, 0.0, 0.0, 0.0, 0.0, 0.0, 0.086043336, 0.0, 0.0, 0.0, 0.0, 0.0, 0.0, 0.0, 0.0, 0.0, 0.0, 0.0, 0.0, 0.0, 0.0, 0.0, 0.0, 0.0, 0.0, 0.03933996, 0.025844118, 0.0, 0.0, 0.0, 0.0, -0.059390157, 0.0, 0.0, 0.0, 0.0, 0.0, 0.0, 0.0, 0.0, 0.0, 0.0, 0.0, 0.0, -0.049711157, 0.0, 0.0, -0.09723854, 0.0, 0.0, 0.0, 0.0, 0.0, 0.0, 0.0, 0.0, 0.0, -0.06650998, 0.0, 0.0, 0.0, 0.08692573, 0.0, 0.0683601, 0.0, 0.0, 0.0, 0.0, 0.0, 0.0, 0.0, 0.0, 0.0, 0.0, 0.0, 0.0, 0.0, 0.0, 0.0, 0.0, -0.05814882, 0.0, 0.0, 0.0, 0.0, 0.0, 0.0, 0.0, 0.0, 0.0, 0.0, 0.0, 0.0, 0.0, 0.0, 0.0, 0.0, 0.0, -0.079580545, 0.0, 0.0, 0.0, 0.0, 0.0, 0.0, 0.0, 0.0, 0.0, 0.0, -0.039744455, 0.0, 0.0, -0.040214367, 0.0, 0.0, 0.0, 0.0, 0.0, 0.0, 0.0, 0.0, -0.04025616, 0.0, 0.0, 0.0, 0.0, -0.040067438, 0.0, 0.036962014, 0.0, 0.0, 0.0, 0.0, 0.0, 0.0, 0.0, -0.04065136, 0.0, 0.0, 0.0, 0.0, -0.041945714, 0.0, 0.0, 0.0, 0.0, 0.0, 0.0, 0.042604007, 0.0, 0.0, 0.0, -0.064734206, 0.0, 0.0, 0.0, 0.0, -0.036630485, 0.0, 0.0, 0.0, 0.0, 0.0, 0.0, 0.0, 0.0, 0.0, 0.0, 0.0, 0.0, 0.0, 0.0, 0.0, 0.0, 0.0, 0.0, 0.0, 0.0, 0.0, 0.0, 0.0, 0.0, 0.0, 0.0, 0.0, -0.08232745, 0.0, 0.0, 0.0, 0.0, 0.0, 0.0, 0.0, 0.0, 0.0, 0.0, 0.0, 0.0, 0.0, 0.0, 0.0, 0.0, 0.0, 0.0, -0.049561866, 0.0, 0.0, 0.0, 0.0, 0.0, -0.005452732, 0.0, 0.0, 0.0, 0.0, 0.0, 0.0, 0.0, 0.0, -0.09217681, 0.0, 0.0, 0.0, 0.0, 0.0, 0.0, 0.0, 0.0, 0.0, 0.0, 0.0, 0.061566915, 0.11271724, 0.0, 0.0, 0.0, 0.0, 0.0, 0.0, 0.0, -0.04702818, 0.0, 0.0, 0.0, 0.0, 0.0, 0.0, 0.0, 0.0, 0.0, 0.0, 0.0, 0.0, 0.0, 0.0, 0.0, 0.0, 0.0, 0.0, -0.061647713, 0.0, 0.0, 0.0, 0.0, 0.0, 0.0, 0.0, 0.0, 0.0, 0.0, 0.0, 0.0, 0.0, 0.0, 0.0, 0.0, 0.14005427, 0.14071009, 0.0, 0.0, 0.0, 0.0, 0.0, 0.0, 0.0244018, 0.0, 0.0, 0.0, 0.0, 0.0, 0.0, 0.0, 0.0, 0.0, 0.0, 0.0, 0.0, 0.0, 0.0, -0.013239428, 0.0, 0.0, 0.0, 0.106399424, 0.0, 0.0, 0.0, 0.0, 0.0, 0.0, 0.0, 0.0, 0.0, 0.0, 0.0, 0.017388098, 0.0, 0.0, 0.0, 0.0, 0.0, 0.0, 0.0, 0.0, 0.0, 0.0, 0.0, 0.061092865, 0.0, 0.0, 0.0, 0.0, 0.0, 0.0, 0.0, 0.0, 0.0, 0.0, 0.0, 0.0, 0.02892783, 0.0, 0.0, 0.0, 0.0, 0.0, 0.049052857, 0.0, 0.0, 0.0, 0.0, 0.050916065, 0.0, 0.0, 0.0, 0.0, 0.0, 0.0, 0.0, 0.0, -0.036815222, 0.0, 0.0, 0.0, 0.0, 0.0, 0.0, 0.0, 0.0, 0.0, 0.0, 0.0, 0.0, -0.041652374, 0.0, 0.0, 0.0, 0.0, 0.0, 0.0, 0.0, 0.0, 0.0, 0.0, 0.0, 0.037849184, 0.0, 0.0, 0.0, 0.0, 0.0, 0.0, 0.0, 0.0, 0.0, 0.0, 0.0, 0.0, 0.0, 0.0, 0.0, 0.0, 0.0, 0.0, 0.0, 0.0, 0.0, 0.0, 0.0, 0.0, 0.0, -0.01758222, 0.0, 0.0, 0.0, 0.0, 0.021203518, 0.0, 0.0, 0.0, 0.0, 0.0, 0.0, 0.0, 0.0, 0.0, 0.0, 0.0, 0.0, 0.0, 0.0, 0.0, 0.0, 0.0, 0.0, 0.0, 0.0, 0.0, 0.0, 0.09411252, 0.0, 0.0, 0.0, 0.106495746, 0.0, 0.084635645, 0.0, 0.0, 0.0, 0.0, 0.0, 0.0, 0.0, 0.0, 0.0, 0.0, 0.0, 0.0, 0.021328239, 0.0, 0.0, 0.0, 0.0, 0.0, 0.0, 0.0, 0.0, 0.0, 0.0, 0.0, 0.0, 0.0, -0.102357455, 0.0, 0.0, 0.0, 0.0, 0.0, 0.0, 0.0, 0.0, 0.0, 0.0, 0.0, 0.0, 0.0, 0.0, 0.0, 0.0, 0.0, 0.0, 0.0, 0.0, 0.0, 0.0, 0.0, 0.0, 0.0, 0.0, 0.0, 0.0, 0.0, 0.10645949, 0.0, 0.0, 0.0, 0.0, 0.0, 0.0, 0.0, 0.0, 0.0, 0.0, 0.0, 0.0, 0.0, 0.0, 0.0, 0.0, 0.0, 0.0, 0.121109255, 0.0902476, 0.0, 0.0, 0.0, 0.0, 0.0, 0.0, 0.0, 0.0, 0.0, 0.0, 0.0, 0.0, 0.0, 0.0, 0.0, 0.0, 0.0, 0.0, 0.0, 0.0, -0.027048925, 0.0, 0.0, 0.0, 0.0, 0.0, 0.0, 0.0, 0.0, 0.0, 0.0, 0.0, 0.0, 0.0, 0.0, 0.0, 0.0, 0.0, 0.0, 0.0, 0.0, 0.0, 0.0, 0.0, 0.0, 0.0, 0.0, 0.0, 0.0, 0.0, 0.0, -0.03769382, -0.06464608, 0.0, -0.09585753, 0.0, 0.0, 0.0, 0.0, 0.0, 0.0, 0.0, 0.0, 0.0, 0.0, 0.0, 0.0, 0.0, 0.04698934, 0.0, 0.0, 0.0, 0.0, 0.0, 0.0, -0.03617278, 0.0, 0.0, 0.0, 0.0, 0.0, 0.040425733, 0.0, 0.0, 0.0, 0.0, 0.0, 0.0, 0.0, 0.0, 0.0, 0.0, 0.04278337, 0.0, 0.0, 0.0, 0.0, 0.0, -0.040490784, 0.0, 0.037299965, 0.0, 0.0, -0.040965963, 0.0, 0.0, 0.0, 0.0, 0.0, 0.0, 0.0, 0.0, 0.0, 0.0, -0.043897674, 0.0, 0.0, 0.0, 0.0, 0.0, 0.0, 0.0, 0.0, 0.0, 0.0, 0.0, 0.0, 0.0, 0.0, 0.0, 0.0, 0.0, 0.0, 0.0, -0.0363257, 0.0, 0.0, 0.0, 0.0, 0.0, 0.0, 0.0, 0.0, 0.0, 0.0, 0.0, 0.0, 0.0, 0.0, 0.0, 0.037381764, 0.0, 0.0, 0.0, 0.0, 0.0, 0.0, 0.0, 0.0, 0.0, 0.0, 0.0, 0.0, 0.0, 0.0, 0.042695288, 0.0, -0.041373104, 0.0, 0.0, 0.0, 0.0, 0.0, 0.0, 0.0, 0.0, 0.0, 0.0, 0.0, -0.03707431, 0.0, 0.0, 0.0, 0.0, 0.0, 0.0, 0.0, 0.0, 0.0, 0.0, 0.0, 0.0, 0.0, 0.0, 0.0, 0.0, 0.0, 0.0, 0.0, 0.0, 0.0, 0.0, 0.0, 0.0, 0.0, 0.0, 0.065403186, 0.0, 0.0, 0.0, 0.0, 0.0, 0.0, 0.0, 0.0, 0.0, 0.0, 0.0, 0.0, 0.0, 0.0, 0.0, 0.0, 0.0, 0.0, 0.0, 0.0, 0.0, 0.0, 0.039786436, -0.048463695, 0.0, 0.0, 0.0, 0.0, 0.025084797, 0.0, 0.0, 0.0, 0.0, -0.039749343, 0.0, 0.0, 0.025349026, 0.0, 0.0, 0.0, 0.0, 0.1128631, 0.0, -0.08961774, 0.0, 0.0, -0.04205904, 0.0, -0.08299006, 0.0, 0.0, 0.0, 0.0, 0.0, 0.0, -0.07462222, 0.0, 0.0, 0.0, 0.034556452, 0.0, 0.0, 0.0, 0.0, 0.0, 0.0, 0.0, 0.0, 0.0, 0.0, -0.07726868, 0.0, -0.10576722, 0.0, 0.0, 0.0, 0.0, 0.0, 0.0, 0.0, -0.006040042, 0.10235668, 0.0, 0.0, 0.01479342, 0.0, 0.0, 0.0, 0.0, 0.0, 0.0, -0.08145369, 0.0, 0.0, 0.0, 0.0, 0.0, 0.0, 0.0, 0.03581077, 0.0, 0.0, 0.0, 0.054559458, 0.0, 0.0, 0.04473117, 0.0, 0.0, 0.0, 0.0, 0.02472988, 0.0, 0.0, 0.0, 0.0, 0.0, 0.0, 0.0, 0.041049134, 0.0, 0.0, 0.0, 0.0, 0.0, 0.0, 0.0, 0.053593576, 0.0, 0.0, -0.04073722, -0.042700283, 0.0, 0.0, 0.0, 0.0, 0.0, 0.0, 0.0, 0.0, -0.04183252, 0.0, 0.0, 0.0, 0.0, 0.0, 0.0, 0.0, 0.0, 0.0, 0.0, 0.0, 0.0, 0.0, 0.0, 0.0, 0.0, 0.027697032, 0.0, 0.0, 0.0, 0.0, 0.0, 0.0, 0.0, 0.0, 0.0, -0.040582076, 0.0, -0.033551946, 0.0, 0.0, 0.0, 0.0, 0.0, -0.032814752, 0.0, 0.0, 0.0, 0.0, 0.0, 0.0, 0.0, 0.0, 0.0, 0.0, -0.033401996, 0.0, 0.0, 0.0, 0.0, 0.0, 0.0, 0.0, 0.0, 0.0, 0.0, 0.0, 0.0, 0.0, 0.0, 0.0, -0.04586703, 0.0, 0.0, 0.0, 0.054660697, 0.0, 0.050038453, 0.0, 0.0, -0.0388288, 0.0, 0.0, 0.0, 0.0, 0.0, 0.0, 0.0, 0.0, 0.0, 0.0, 0.0, 0.0, 0.0, 0.0, 0.0, 0.0, 0.0, 0.0, 0.0, 0.0, 0.0, 0.0, 0.0, 0.0, 0.0, 0.0, 0.0, 0.0, 0.0, 0.0, 0.0, 0.0, 0.0, 0.0, 0.0, 0.0, 0.0, 0.0, 0.0, 0.0, 0.0, 0.0, 0.0, 0.0, 0.0, 0.0, 0.0, 0.0, 0.0, 0.0, 0.0, 0.0, 0.0, 0.0, 0.0, 0.0, 0.0, 0.0, 0.0, 0.0, 0.0, 0.0, 0.0, 0.0, 0.0, 0.0, 0.0, 0.0, -0.07111065, 0.0, 0.0, 0.0, 0.0, 0.0, 0.0, 0.0, 0.0, 0.0, -0.050919257, 0.0, 0.0, 0.0, 0.0, 0.0, 0.0, -0.07217035, 0.0, 0.0, 0.0, 0.0, 0.0, 0.0, 0.0, 0.0, 0.0, 0.0, 0.0, 0.0, 0.0, 0.0, 0.0, 0.0, 0.0, 0.0, 0.0, 0.0, 0.0, 0.0, 0.0, 0.0, 0.0, 0.0, 0.0, 0.0, 0.0, 0.0, 0.0, 0.0, 0.0, 0.0, 0.0, 0.0, 0.0, 0.0, 0.0, 0.0, 0.0, 0.0, 0.0, 0.0, 0.0, 0.0, 0.047638018, 0.0, 0.0, 0.0, 0.051376026, 0.0, 0.0, 0.0, 0.0, 0.0, 0.0, 0.0, 0.0, 0.0, 0.0, -0.058578894, 0.0, 0.0, 0.0, 0.0, 0.0, 0.0, -0.097170524, 0.0, 0.0, 0.052460566, 0.0, 0.0, 0.0, 0.0, 0.0, 0.0, 0.0, 0.0, 0.0, 0.0, 0.0, 0.0, 0.0, 0.0, 0.0, 0.0, 0.0, 0.0, 0.0, 0.0, 0.0, 0.0, 0.0, 0.0, 0.0, 0.0, -0.059150446, 0.0, 0.0, 0.0, 0.0, 0.0, 0.0, 0.0, 0.0, 0.0, 0.0, 0.0, 0.0, -0.01120599, 0.0, 0.0, 0.0, 0.0, 0.0, 0.0, 0.0, 0.0, 0.0, 0.0, 0.0, 0.0, 0.0, 0.0, 0.0, 0.0, 0.0, 0.0, 0.0, 0.0, 0.0, 0.0, 0.0, 0.0, 0.0, -0.04164018, 0.0, -0.050532386, 0.0, 0.0, 0.0, 0.0, 0.0, -0.046683088, 0.0, -0.03075091, 0.0, 0.0, 0.0, 0.0, 0.0, 0.0, 0.03173427, 0.0, 0.0, 0.043051343, 0.0, 0.0, 0.059747852, 0.0, 0.0, 0.0, 0.0, 0.0, 0.0, 0.068299115, 0.0, 0.0, 0.0, 0.0, 0.0, -0.09227343, 0.0, 0.0, 0.0, -0.08142892, 0.0, 0.0, 0.0, 0.0, 0.0, 0.0, 0.0, 0.0, 0.0, 0.018711321, 0.0, 0.0, 0.0, 0.035942554, 0.0, 0.0, 0.0, 0.0, 0.0, 0.0, 0.0, 0.0, 0.0, 0.03987538, 0.0, 0.0, -0.035926755, 0.0, 0.0, 0.0, 0.0, 0.0, 0.0, 0.0, 0.0, 0.0, 0.0, 0.0, 0.0, 0.0, 0.0, 0.089129664, 0.0, 0.0, 0.0, 0.0, 0.043089483, 0.0, 0.0, 0.0, 0.093740664, 0.0, 0.0, 0.0, 0.0, 0.0, -0.041655812, 0.0, 0.0, 0.0, 0.0, 0.0, 0.0, 0.0, 0.0, 0.0, 0.0, 0.0, -0.039145198, 0.0, 0.0, 0.0, -0.040304836, 0.0, 0.0, 0.0, 0.0, 0.0, 0.0, 0.0, 0.10411632, 0.0, 0.0, -0.039408933, 0.0, 0.0, 0.0, 0.0, 0.0, 0.0, 0.0, 0.0, -0.05088733, 0.0, 0.0, 0.0, 0.0, 0.0, 0.0, 0.0, 0.0, 0.0, 0.0, -0.08902286, 0.0, -0.09791085, 0.0, 0.0, 0.0, 0.076406494, 0.0, 0.0, 0.0, 0.0, -0.023259645, 0.0, 0.0, 0.024324246, 0.02413509, 0.0, 0.030737206, 0.0, 0.0, 0.0, 0.0, 0.02564767, 0.0, 0.0, 0.0, 0.0, 0.0, 0.0, 0.0, 0.0, 0.0, 0.0, 0.0, 0.0, 0.0, 0.0, 0.0, 0.0, 0.0, 0.0, 0.0, 0.0, 0.0, 0.0, 0.0, 0.0, 0.0, -0.074456, 0.0, 0.0, 0.0, 0.0, 0.0, 0.0, 0.0, 0.0, 0.0, 0.0, 0.0, 0.0, 0.0, 0.043440342, 0.0, 0.0, 0.0, 0.0, 0.0, 0.0, 0.0, 0.0, 0.0, 0.0, 0.0, 0.0, 0.0, 0.0, 0.0, 0.0, 0.0, 0.0, 0.0, 0.0, 0.0, 0.0, 0.0, 0.0, 0.101910345, 0.0, 0.0, 0.0, 0.0, 0.0, 0.0, 0.0, 0.0, 0.0, 0.0, 0.0, 0.0, 0.0, 0.0, 0.0, 0.0, 0.027467357, 0.0, 0.0, 0.0, 0.0, 0.0, 0.096380554, 0.0, 0.0, 0.0, 0.0, 0.0, 0.0, 0.0, 0.13652189, 0.0, 0.0, 0.0, 0.0, 0.0, -0.045016162, 0.0, 0.0, 0.0, 0.0, 0.0, 0.0, 0.0, 0.0, 0.0, 0.0, 0.0, 0.036481664, 0.0, 0.0, 0.0, 0.027702728, -0.04267318, 0.0, 0.0, 0.0, 0.0, 0.0, 0.0, 0.0, 0.0, 0.0, 0.0, -0.031502258, 0.0, 0.0, 0.049277715, 0.0, 0.0, 0.0, 0.0, 0.0, -0.046474587, 0.0, 0.0, -0.013551319, 0.0, 0.0, 0.0, 0.0, 0.0, 0.0, 0.0, 0.0, 0.0, 0.0, 0.0, 0.0, 0.0, -0.03945834, 0.0, 0.0, 0.0, 0.0, 0.0, -0.041226994, 0.0, 0.0, 0.0, 0.0, 0.0, 0.0, 0.0, 0.0, 0.0, 0.0, 0.0, 0.0, 0.0, 0.0, 0.0, 0.0, 0.0, 0.0, 0.0, 0.0, 0.0, 0.0, 0.0, 0.0, 0.047663998, 0.0, 0.0, 0.0, 0.0, 0.0, 0.0, 0.0, 0.0, 0.0, 0.0, 0.0, 0.0, 0.0, 0.0, 0.0, 0.0, 0.059126817, 0.0, 0.0, 0.0, 0.0, 0.0, 0.0, -0.13425927, 0.0, 0.0, 0.0, 0.0, 0.0, 0.0, 0.0, 0.0, 0.0, 0.0, 0.0, 0.0, 0.0, -0.055659607, 0.0, 0.0, 0.0, -0.072010904, 0.0, -0.04280269, 0.0, 0.0, 0.0, 0.0, 0.0, 0.0, 0.0, 0.0, 0.0, 0.0, 0.0, 0.0, 0.0, 0.0, 0.0, 0.0, 0.0, 0.0, 0.0, 0.0, 0.0, 0.091737375, 0.16731763, 0.0, 0.0, 0.0, 0.0, 0.0, 0.079578936, 0.0, 0.0, 0.0, 0.0, 0.0, 0.0, 0.0, 0.0, 0.0, 0.0, 0.0, 0.0, 0.0, 0.0, 0.0, 0.0, 0.0, 0.0, 0.0, -0.042608913, 0.0, 0.0, 0.0, 0.0, 0.0, 0.0, 0.0, 0.0, 0.0, 0.0, 0.0, 0.0, 0.0, -0.030405078, 0.053076793, 0.0, 0.0, 0.0, 0.0, 0.050323434, 0.0, 0.0, 0.0, 0.0, 0.0, 0.0, 0.0, 0.0, 0.0, 0.0, 0.0, 0.0, 0.0, 0.0, 0.0, 0.0, 0.0, 0.0, -0.041303918, 0.0, 0.0, 0.0, 0.0, 0.0, 0.0, -0.040667724, 0.0, 0.0, 0.0, 0.0, 0.0, 0.0, 0.0, 0.0, 0.0, -0.101633295, 0.0, 0.0, 0.0, 0.0, -0.05261553, 0.0, 0.0, 0.0, -0.015218984, 0.0, 0.0, -0.054944154, 0.0, 0.0, 0.0, 0.0, 0.0, 0.0, 0.0, 0.0, 0.0, 0.0, 0.0, 0.0, 0.0, 0.0, 0.0, 0.0, 0.0, 0.0, 0.0, 0.0, 0.0, 0.0, 0.0, 0.0, 0.0, 0.0, 0.0, 0.0, 0.0, 0.0, 0.0, 0.0, 0.0, 0.0, 0.0, -0.038043484, 0.0, 0.0, 0.0, 0.0, -0.040469747, 0.038193356, 0.0, 0.0, 0.0, 0.0, 0.0, 0.0, 0.0, 0.0, 0.041593738, 0.048061382, 0.048736524, 0.0, 0.0, 0.0, 0.0, 0.0, 0.0, 0.0, 0.0, 0.0, 0.0, 0.0, 0.0, 0.0, 0.0, 0.0, 0.0, 0.0, 0.0, 0.0, 0.0, 0.0, 0.0, 0.0, 0.0, 0.0, 0.0, 0.0, 0.0, 0.0, 0.0, 0.0, 0.0, 0.0, 0.0, 0.0, 0.0, 0.0, 0.0, 0.0, 0.0, -0.06508332, 0.0, 0.0, 0.0, 0.0, 0.0, 0.0, 0.0, 0.0, 0.0, 0.0, 0.0, 0.0, 0.0, 0.0, 0.0, 0.0, 0.0, 0.0, 0.0, 0.0, 0.0, -0.05080866, 0.0, 0.0, 0.0, 0.0, 0.0, 0.0, 0.0, 0.0, 0.0, 0.0, 0.0, 0.0, 0.0, 0.0, -0.029598102, -0.022816192, 0.0, 0.0, 0.0, 0.06636009, 0.0, 0.1277101, 0.0, 0.0, 0.0, 0.0, 0.0, 0.0, -0.03944075, 0.0, 0.0, 0.0, 0.0, 0.0, 0.0, 0.0, 0.0, -0.06200834, 0.0, 0.0, 0.0, 0.0, 0.0, 0.0, 0.0, 0.0, 0.0, 0.0, 0.0, 0.0, 0.0, 0.0, 0.07374472, 0.0, 0.0, 0.0, 0.0, 0.0, -0.008220823, 0.0, 0.0, 0.0, 0.0, -0.015575845, 0.0, 0.0, 0.0, 0.0, 0.0, 0.0, 0.0, 0.086402886, 0.0, 0.0, 0.0, 0.061259665, 0.0, 0.0, 0.0, 0.0, 0.0, 0.0, 0.0, 0.06938346, 0.0, 0.0, 0.0, 0.0, 0.0, 0.0, 0.0, -0.06332329, 0.0, 0.0, 0.0, 0.0, 0.0, 0.0, 0.0, -0.042333406, 0.0, 0.0, 0.0, 0.0, -0.05088109, 0.0, 0.0, 0.0, 0.0, 0.0, 0.0, 0.0, 0.0, 0.0, 0.0, 0.0, 0.089628845, 0.0, 0.0, 0.0, 0.0, 0.0, 0.0, 0.0, 0.0, 0.0, -0.119081326, 0.0, -0.065886006, 0.0, 0.0, 0.0, 0.0, 0.0, 0.0, 0.0, 0.017197074, 0.0, 0.0, 0.0, 0.0, 0.08873143, 0.0, 0.0, 0.0, 0.0, 0.0, 0.0, 0.0, 0.0, 0.0, 0.0, 0.0, 0.0, 0.0, 0.0, 0.07102378, 0.0, 0.0, 0.0, 0.034597285, 0.063329026, 0.0, 0.0, 0.0, 0.0, 0.0, 0.0, 0.0, 0.0, 0.0, 0.0, 0.0, 0.019941783, 0.0, 0.0, 0.0, 0.0, 0.0, 0.0, 0.0, 0.0, 0.0, 0.0, 0.0, 0.0, 0.0, 0.0, 0.0, 0.08928525, 0.0, 0.0, 0.0, 0.0, -0.07540208, 0.0, 0.0, 0.0, 0.0, 0.0, 0.0, 0.060772654, 0.0, 0.0, 0.0, 0.0, 0.0, 0.0, 0.0, 0.0, 0.0, 0.0, 0.0, -0.042253345, 0.0, 0.0, 0.0, 0.0, 0.0, 0.0, 0.0, 0.0, 0.0, 0.0, 0.0, 0.034799565, 0.0, 0.0, 0.0, 0.0, 0.0, 0.0, 0.0, 0.0, 0.0, 0.0, 0.0, 0.0, 0.0, 0.0, -0.07773282, 0.0, 0.0, 0.0, 0.0, 0.0, 0.0, 0.0, 0.0, 0.0, 0.0, 0.0, 0.0, 0.0, 0.0, 0.0, 0.0, 0.0, 0.0, 0.0, 0.0, 0.0, 0.0, 0.0, 0.0, 0.046482034, 0.0, -0.10980128, 0.0, 0.0, 0.16032429, 0.0, 0.0, 0.0, 0.0, 0.0, 0.0, 0.0, 0.0, 0.0, 0.0, 0.0, 0.0, 0.0, -0.053967655, -0.06526095, -0.041751865, 0.0, 0.0, 0.0, 0.0, -0.03869299, 0.0, 0.0, 0.0, 0.0, 0.0, 0.0, -0.039131653, 0.0, 0.038258236, 0.0, 0.0, 0.0, 0.0, 0.0, 0.0, 0.0, 0.0, 0.0, 0.0, 0.0, 0.0, 0.0, 0.0, 0.0, 0.0, 0.0, 0.0, 0.0, 0.0, 0.0, 0.0, 0.0, 0.0, 0.0, 0.0, 0.07924332, 0.0, -0.04958327, 0.0, 0.0, 0.0, 0.018028812, -0.06892303, 0.0, 0.0, 0.0, 0.0, 0.039604835, 0.0, 0.0, 0.0, 0.0, 0.0, 0.0, 0.0, 0.0, 0.0, 0.0, 0.0, 0.0, 0.0, 0.0, 0.0, 0.0, 0.0, -0.041646697, 0.0, 0.0, 0.0, 0.0, 0.0, 0.0, 0.0, 0.0, 0.0, 0.0, 0.0, 0.0, 0.0, 0.0, 0.0, 0.0, 0.0, 0.0, 0.0, 0.0, 0.0, 0.0, 0.0, 0.0, 0.0, 0.0, 0.0, 0.0, 0.0, 0.0, -0.04688399, 0.0, 0.0, 0.0, 0.0, 0.0, 0.0, 0.0, 0.0, 0.0, 0.0, -0.034892887, 0.0, 0.0, 0.0, 0.10765128, 0.0, 0.0, 0.0, 0.0, -0.061972342, 0.0, 0.0, -0.107791334, 0.0, 0.0, 0.0, 0.0, 0.0, 0.0, 0.0, 0.0, 0.0, 0.0, 0.0, 0.0, 0.0, 0.0, 0.0, 0.0, 0.0, 0.0, 0.0, 0.0, 0.042756017, 0.0, 0.0, 0.0, 0.0, 0.0, 0.0, 0.0, 0.0, 0.0, 0.0, 0.0, 0.04105789, 0.0, 0.0, 0.0, 0.0, 0.0, 0.0, 0.0, 0.041709323, 0.0, 0.0, 0.0, 0.0, 0.0, 0.0, -0.1255284, 0.0, 0.0, 0.0, 0.020505171, 0.0, 0.0, 0.0, 0.0, 0.0, 0.0, 0.0, 0.0, 0.0, 0.0, 0.0, 0.0, 0.0, 0.0, -0.05794279, -0.04894899, 0.0, 0.0, 0.0, -0.12986691, 0.0, 0.0, 0.0, 0.034252685, 0.0, -0.04427994, 0.0, 0.0, -0.04891529, -0.070930205, 0.0, -0.024782117, 0.08877443, 0.0, 0.0, -0.017623112, 0.0, 0.0, 0.0, 0.0, 0.0, 0.0, 0.0, 0.0, 0.0, -0.07980987, 0.0, 0.0, 0.0, 0.0, 0.0, 0.0, 0.0, 0.0, 0.0, 0.0, 0.0, 0.0, 0.0, 0.09412799, 0.0, 0.0, 0.0, 0.0, 0.0, 0.0, 0.0, 0.0, 0.0, 0.0, 0.0, 0.0, 0.0, 0.0, 0.0, 0.0, 0.0, -0.042156164, 0.0, 0.0, 0.0, 0.0, 0.0, -0.037608307, 0.0, 0.0, 0.0, -0.0458442, 0.0, 0.0, 0.0, 0.0, 0.0, 0.0, 0.0, 0.0, 0.0, 0.0, 0.0, 0.0, 0.0, 0.0, 0.0, 0.0, 0.02900582, 0.0, 0.0, 0.0, 0.0, 0.0, 0.0, 0.0, 0.0, 0.0, 0.0, 0.0, 0.0, 0.06330299, 0.0, -0.0539581, 0.0, 0.0, 0.0, 0.0, 0.0, 0.0, 0.0, 0.0, 0.0, 0.0, 0.0, 0.0, -0.09075096, 0.0, 0.0, 0.0, 0.0, 0.0, 0.0, -0.19270013, 0.0, 0.0, 0.0, 0.0, 0.0, 0.017572511, 0.09631, 0.0, 0.0, 0.0, 0.0, 0.0, 0.0, 0.0, 0.0, 0.0, 0.0, 0.0, 0.0, 0.0, 0.0, 0.0, 0.0, 0.0, 0.0, 0.0, 0.0, 0.0, 0.0, 0.0, 0.0, 0.0, -0.04044716, 0.0, 0.0, 0.0, 0.0, 0.0, 0.0, 0.0, 0.0, 0.0, 0.0, 0.0, 0.0, 0.0, 0.0, 0.0, 0.0, 0.0, 0.0, 0.0, 0.0, 0.0, 0.0, 0.0, 0.0, 0.0, 0.0, 0.0, 0.0, 0.0, 0.0, 0.0, 0.0, 0.0, 0.0, 0.0, 0.0, 0.0, 0.0, 0.0, 0.0, 0.0, 0.0, 0.0, 0.0, 0.0, 0.0, 0.0, 0.0, 0.115742266, 0.15198958, 0.0, 0.0, 0.0, 0.0, -0.043402534, 0.0, 0.0, 0.0, 0.0, 0.0, 0.0, 0.0, 0.0, 0.0, 0.0, 0.058057454, 0.0, 0.0, 0.0, 0.0, 0.0, 0.0, 0.0, 0.0, 0.0, 0.0, 0.0, 0.0, 0.0, -0.06490845, 0.0, 0.0, 0.0, -0.13261793, 0.0, 0.0, 0.0, 0.0, 0.0, 0.0, 0.0, 0.06980848, 0.0, 0.0, 0.0, 0.0, 0.0, 0.0, -0.041524403, 0.0, 0.0, 0.0, 0.0, 0.0, 0.0, 0.0, 0.0, 0.0, 0.0, 0.0, 0.0, 0.0, 0.0, 0.0, 0.0, 0.07685256, 0.08346401, 0.0, 0.0, 0.0, 0.060878456, 0.0, 0.0, 0.0, 0.0, 0.0, 0.0, 0.0, 0.0, 0.0, 0.0, -0.1348232, 0.0, 0.0, 0.0, 0.0, 0.0, 0.0, 0.0, 0.0, 0.0, 0.0, 0.0, 0.0, 0.0, 0.0, 0.0, 0.0, 0.0, 0.0, -0.040013265, 0.0, 0.0, 0.0, 0.0, 0.08076318, 0.0, 0.0, 0.0, 0.0, 0.0, 0.0, 0.0, 0.0, 0.0, 0.0, 0.0, 0.07747528, 0.0, 0.0, 0.0, -0.11207652, 0.0, 0.0, 0.0, 0.0, 0.0, 0.0, 0.0, 0.0, -0.033412505, 0.0, 0.0, 0.0, 0.0, 0.0, 0.0, 0.0, 0.0, 0.0, 0.0, 0.0, 0.0, 0.0, 0.0, 0.034009315, 0.0, 0.0, 0.0, 0.0, 0.035708968, 0.0, 0.0, 0.0, 0.0, 0.0, 0.0, 0.0, 0.0, 0.0, 0.0, 0.0, 0.0, 0.0, 0.0, 0.0, 0.0, 0.0, 0.0, 0.0, 0.0, 0.0, 0.0, 0.0, 0.0, 0.0, 0.0, 0.0, 0.0, -0.066587195, 0.0, 0.0, 0.0, 0.0, 0.0, 0.0, 0.0, -0.07782923, 0.0, 0.0, 0.0, 0.0, 0.0, -0.043934207, 0.0, 0.0, 0.0, 0.0, 0.0, 0.0, 0.0, 0.0, 0.0, 0.0, 0.0, 0.0, 0.0, 0.0, 0.0, 0.0, 0.0, 0.0, 0.0, 0.0, 0.0, 0.0, 0.0, 0.0, 0.0, 0.0, 0.030396532, 0.0, 0.0, 0.0, 0.0, 0.041802973, 0.0, 0.034156915, -0.039947234, 0.046184476, 0.0, 0.0, 0.0, 0.0, 0.0, 0.0, 0.0, 0.0, 0.0, -0.04519784, 0.0, 0.0, 0.0, 0.0, 0.038838774, 0.0, 0.0, 0.0, 0.08626305, 0.0, 0.0, 0.0, 0.0, 0.057617795, 0.0, 0.0, -0.021000601, 0.0, 0.0, 0.0, 0.0, 0.0, 0.0, 0.0, 0.0, 0.0, -0.077285454, 0.0, 0.0, 0.0, 0.0, 0.0, 0.0, 0.0, 0.0, 0.0, 0.0, 0.0, 0.0, 0.0, 0.0, 0.0, 0.0, 0.0, 0.0, -0.037695605, 0.0, 0.0, 0.0, 0.0, 0.0, 0.0, 0.0, 0.0, 0.0, 0.0, 0.0, 0.0, 0.0, 0.0, 0.0, 0.0, 0.0, 0.0, 0.0, 0.0, 0.0, 0.0, 0.0, 0.0, 0.0, 0.0, 0.0, 0.0, 0.0, 0.0, 0.0, 0.0, 0.0, 0.0, 0.0, 0.0, 0.0, 0.0, 0.0, 0.0, 0.029500151, 0.0, -0.028683303, 0.0, 0.0, 0.0, 0.0, 0.0, 0.0, 0.0, 0.0, 0.0, 0.0, 0.0, 0.0, 0.0, 0.0, 0.0, 0.0, 0.0, 0.0, 0.0, 0.0, 0.0, 0.0, 0.0, 0.0, 0.0, 0.0, 0.0, 0.0, 0.0, 0.0, 0.0, 0.0, 0.0, 0.0, 0.0, 0.0, 0.0, 0.0, 0.0, 0.0, 0.0, 0.0, 0.0, 0.0, 0.0, 0.0, 0.0, -0.06324386, 0.0, -0.039189212, 0.0, 0.0, 0.0, 0.0, -0.097870685, 0.0, 0.0, 0.0, 0.0, 0.0, 0.0, 0.0, 0.0, 0.0, 0.0, 0.0, 0.0, -0.021841532, 0.0, 0.0, 0.0, -0.037775476, 0.0, 0.0, 0.0, 0.0, 0.0, 0.0, -0.044369098, 0.0, 0.0, 0.0, 0.0, 0.0, 0.0, 0.0, 0.0, 0.0, -0.060388003, 0.0, 0.0, 0.0, -0.050738987, 0.0, 0.0, 0.0, 0.0, 0.0, 0.0, 0.0, 0.0, 0.0, 0.0, 0.09960016, 0.0, 0.0, 0.0, 0.0, 0.0, 0.0, 0.0, 0.0, 0.0, 0.0, 0.0, 0.0, 0.0, 0.0, 0.0, 0.0, 0.0, 0.0, -0.040011108, 0.0, 0.0, 0.0, -0.046570513, 0.0, 0.0, 0.0, 0.0, 0.0, 0.0, 0.0, 0.0, 0.0, 0.0, 0.2013399, 0.0, 0.0, 0.0, 0.0, 0.0, 0.0, 0.0, 0.0, 0.0, 0.0, 0.0, 0.0, 0.0, 0.0, 0.0, 0.0, 0.0, 0.0, 0.0, 0.0, 0.0, 0.0, 0.0, 0.0, 0.0, 0.0, 0.0, 0.0, 0.0, 0.0, 0.0, 0.0, -0.03292299, 0.0, 0.029562378, 0.0, 0.0, 0.0, 0.0, 0.0, 0.0, 0.0, 0.0, 0.0, 0.0, 0.0, 0.0, 0.0, 0.0, 0.0, 0.0, 0.0, -0.013598914, 0.0, 0.0, 0.0, -0.02061105, 0.0, 0.0, 0.0, 0.0, 0.0, 0.0, 0.0, 0.0, 0.0, 0.0, 0.0, 0.0, 0.0, 0.0, 0.0, 0.0, 0.0, 0.0, 0.0, 0.0, 0.0, 0.0, 0.03621231, 0.0, 0.0, 0.0, 0.0, 0.0, 0.0, -0.020951329, 0.0, 0.0, 0.0, 0.0, 0.0, 0.0, 0.039588623, 0.0, 0.0, 0.0, 0.07766695, 0.026050461, 0.0, 0.0, -0.06789623, 0.0, -0.027616518, 0.052887272, 0.0, 0.0, 0.0, 0.0, 0.0, 0.0, 0.0, 0.0, 0.0, 0.0, 0.05864921, -0.041461304, 0.0, 0.0, 0.0, 0.0, 0.0, 0.0, 0.0, 0.072239235, 0.0, 0.0, 0.0, 0.06665465, 0.07697691, 0.0, -0.055152282, 0.0, 0.0, -0.04671793, 0.0, 0.0, 0.0, 0.0, 0.0, 0.0, 0.05573505, 0.0, 0.0, 0.0, 0.0, 0.0, 0.0, 0.0, 0.0, 0.0, 0.052274223, 0.0, 0.0, 0.0, 0.0, 0.0, 0.0, 0.0, 0.0, 0.0, 0.0, 0.0, 0.0, 0.0, -0.042218063, 0.0, 0.0, 0.0, 0.0, 0.0, 0.0, 0.0, 0.0, 0.0, 0.0, 0.0, 0.0, 0.0, 0.0, 0.0, 0.0, 0.0, 0.0, 0.0, 0.03739844, 0.0, 0.0, 0.0, 0.0, 0.0, 0.0, 0.036863975, 0.0, 0.0, 0.0, 0.0, 0.0, 0.0, -0.033447262, 0.0, 0.04328489, 0.0, 0.0, 0.0, 0.0, 0.0, 0.0, 0.0, 0.0, 0.0, 0.0, 0.0, 0.0, 0.0, 0.0, 0.048103537, 0.0, 0.0, 0.0, 0.0, 0.0, 0.0, 0.0, 0.0, 0.0, 0.0, 0.0, 0.0, 0.0, 0.0, 0.0, 0.0, 0.0, 0.0, 0.01301618, 0.0, 0.0, 0.0, 0.0, 0.0, 0.0, 0.0, 0.0, 0.0, 0.0, 0.0, 0.0, 0.0, -0.03619715, -0.087865226, 0.0, 0.0, 0.0, 0.0, 0.03561557, 0.045812767, 0.0, 0.0, 0.0, 0.0, 0.0, 0.0, 0.0, 0.0, 0.0, 0.0, 0.0, 0.0, 0.0, 0.0, 0.0, 0.0, 0.0, 0.20131981, 0.08383924, 0.0, 0.0, 0.0, 0.0, 0.0, 0.0, 0.0, 0.0, 0.0, 0.0, 0.0, 0.0, 0.0, 0.0, 0.058522344, 0.0, 0.0, 0.008224273, 0.0, 0.0, 0.0, 0.0, 0.0, 0.0, 0.0, 0.0, 0.0, 0.0, 0.0, 0.0, 0.0, 0.0, 0.0, 0.0, 0.0, 0.0, 0.0, 0.0, 0.0, 0.0, 0.0, 0.0, 0.0, 0.10115539, 0.0, 0.0, -0.10335733, -0.06981289, 0.0, 0.0, 0.0, 0.0, 0.0, 0.0, 0.0, 0.0, 0.0, 0.0, 0.0, 0.0, 0.0, 0.0, 0.0, 0.0, 0.0, 0.0, 0.0, 0.0, 0.0, 0.0, 0.0, 0.0, 0.0, 0.0, 0.0, 0.0, 0.0, 0.0, -0.05051666, 0.0, 0.0, 0.0, 0.0, 0.0, 0.0, 0.0, 0.0, 0.0, 0.0, 0.0, 0.0, -0.06969802, 0.0, 0.0, 0.071313925, 0.0, 0.0, 0.0, 0.0, 0.0, 0.0, 0.0, 0.0, 0.0, -0.036944788, 0.0, 0.0, 0.0, 0.0, 0.0, 0.0, 0.0, 0.0, 0.0, 0.0, 0.0, 0.0, 0.0, 0.0, 0.0, -0.046750065, 0.0, 0.0, 0.0, 0.0, 0.0, 0.0, 0.0, 0.0, 0.0, 0.0, 0.0, 0.0, 0.0, 0.0, 0.0, 0.0, 0.0, 0.0, 0.0, 0.0, 0.0, 0.0, 0.0, 0.0, 0.0, 0.0, -0.06658357, 0.0, 0.0, 0.0, 0.0, 0.0, 0.05062887, 0.0, 0.0, 0.0, 0.0, 0.0, 0.0, 0.0, 0.0, 0.0, 0.0, 0.0, 0.0, 0.0, 0.0, 0.0, 0.0, 0.0, 0.0, 0.0, 0.0, 0.0, 0.0, 0.0, 0.0, 0.0, 0.0, 0.0, 0.0, 0.0, 0.0, 0.0, 0.0, 0.0, 0.0, 0.0, 0.0, 0.0, 0.0, 0.0, 0.077242, 0.0, 0.0, 0.0, 0.0, 0.0, 0.0, 0.0, 0.0, 0.0, 0.0, 0.0, 0.0, 0.0, 0.0, 0.0, 0.0, 0.0, 0.0, 0.0, 0.0, 0.0, 0.0, 0.0, 0.0, 0.0, 0.0, 0.0, 0.0, 0.0, 0.0, 0.0, 0.0, 0.0, 0.0, 0.0, -0.010750729, 0.0, 0.0, 0.0, 0.0, 0.0, 0.0, 0.0, 0.0, 0.0, 0.0, 0.0, 0.0, 0.039242316, 0.0, 0.0, 0.0, 0.0, 0.0, 0.0, 0.0, 0.0, 0.0, 0.0, 0.0, 0.0, 0.0, 0.0, 0.0, 0.0, 0.0, 0.0, 0.0, 0.0, 0.0, 0.0, 0.0, 0.0, 0.0, 0.055817608, 0.0, 0.0, 0.0, 0.0, 0.0, 0.0, 0.0, 0.0, 0.0, 0.0, 0.0, 0.0, 0.0, 0.0, 0.0, 0.0, 0.050400175, 0.0, 0.0, 0.08578125, 0.0, 0.0, 0.0, 0.0, 0.0, 0.0, 0.0, 0.0, 0.0, 0.0, 0.0, -0.059292108, 0.0, 0.0, 0.0, 0.0, 0.0, 0.0, 0.0, 0.0, 0.0, 0.0, 0.0, 0.0, 0.0, 0.0, -0.042400576, 0.0, 0.0, 0.0, 0.0, 0.0, 0.0, 0.0, 0.0, 0.0, 0.0, 0.0, 0.0, 0.0, 0.0, 0.0, 0.0, 0.0, 0.0, 0.0, 0.0, 0.0, 0.0, 0.0, 0.0, 0.0, 0.0, 0.011182303, 0.06155905, 0.0, 0.0, 0.0, 0.0, 0.0, 0.0, 0.0, 0.0, 0.0, 0.0, 0.05182117, 0.056331497, 0.0, 0.0, 0.0, 0.0, 0.0, 0.0, 0.0, 0.0, 0.0, 0.0, 0.0, 0.0, 0.0, 0.0, 0.0, 0.0, 0.0, 0.0, 0.0, 0.0, 0.0, -0.04332323, 0.03539772, 0.0, 0.0, 0.0, 0.0, 0.0, 0.0, 0.0, 0.0, 0.0, 0.0, 0.0, 0.0, 0.0, 0.0, 0.0, 0.0, 0.0, 0.0, 0.0, 0.0, 0.0, 0.0, 0.0, 0.0, 0.0, 0.0, 0.0, 0.0, 0.0, 0.0, 0.0, -0.03657079, 0.0, 0.0, 0.0, 0.0, 0.0, 0.0, 0.0, 0.0, 0.0, 0.0, -0.047808297, 0.0, 0.0, 0.0, 0.0, 0.0, 0.0, 0.0, 0.0, 0.0, -0.053063985, 0.0, 0.0, 0.0, 0.0, 0.0, 0.0, 0.0, 0.0, 0.0, 0.0, 0.0, 0.0, 0.0, 0.0, 0.0, 0.0, 0.0, 0.0, 0.0, 0.0, 0.0, 0.0, 0.0, 0.0, 0.0, -0.040188134, 0.0, 0.0, 0.0, 0.0, 0.0, 0.0, 0.0, 0.0, 0.0, 0.050429568, 0.0, 0.0, 0.0, 0.0, 0.0, 0.0, 0.0, 0.0, 0.0, 0.0, 0.0, 0.0, 0.0, 0.0, 0.0, 0.0, 0.0, 0.0, 0.0, 0.0, 0.0, 0.0, 0.0, 0.0, 0.0, 0.0, 0.0, 0.0, 0.0, 0.0, 0.0, 0.0, 0.0, 0.0, 0.0, 0.0, 0.0, 0.0, 0.0, 0.0, 0.0, 0.0, 0.0, 0.031163728, 0.0, 0.0, 0.0, 0.0, 0.013136575, 0.0, 0.03690706, 0.0, 0.0, 0.0, 0.0, 0.0, 0.0, 0.0, 0.0, 0.0, 0.0, 0.0, 0.0, 0.0, 0.0, 0.0, 0.0, 0.0, 0.0, 0.0, 0.0, 0.0, 0.0, 0.0, 0.0, -0.11193637, 0.0, 0.0, 0.0, 0.0, 0.0, 0.0, 0.0, 0.0, 0.0, 0.0, 0.0, 0.0, 0.09188084, 0.0, -0.023925783, 0.0, 0.0, 0.0, 0.0, 0.0, 0.0, 0.0, 0.0, 0.0, 0.0, 0.0, 0.0, 0.0, 0.0, 0.0, 0.0, 0.0, -0.074112415, 0.0, 0.0, 0.052887984, 0.06375436, 0.0, 0.0, 0.0, 0.0, 0.0, -0.021045452, 0.0, 0.0, 0.0, 0.0, 0.0, 0.0, 0.0, 0.0, 0.0, 0.09844135, 0.0, 0.07999013, 0.06623235, 0.0, 0.014971339, 0.0, 0.0, 0.0, -0.059979342, 0.0, 0.0, 0.0, 0.0, 0.0, 0.0, 0.0, 0.0, 0.0, 0.0, 0.0, 0.0, 0.0, 0.0, 0.0, 0.0, 0.0, 0.0, 0.0, 0.0, 0.0, 0.0, 0.0, 0.0, 0.0, 0.0, 0.0, -0.04254705, 0.0, 0.0, 0.0, 0.0, 0.0, 0.0, 0.0, 0.0, 0.037381142, 0.0, 0.0, 0.0, 0.03941127, 0.0, 0.0, 0.0, 0.0, 0.0, 0.0, 0.0, 0.0, 0.0, 0.0, 0.0, 0.0, 0.0, 0.0, 0.0, 0.0, 0.0, 0.0, -0.024296412, 0.0, 0.0, 0.0, 0.0, 0.0, 0.0, 0.0, 0.0, 0.0, 0.0, 0.0, 0.0, 0.0, 0.0, 0.0, 0.0, 0.0, 0.0, 0.0, 0.0, 0.0, 0.0, 0.0, 0.0, 0.0, 0.0, 0.0, 0.0, 0.0, 0.0, 0.0, 0.0, 0.0, 0.0, 0.0, 0.0, 0.0, 0.0, 0.0, 0.0, 0.0, 0.0, 0.0, 0.0, 0.0, 0.0, 0.0, 0.041433968, 0.0, 0.0, 0.0, 0.0, 0.0, 0.0, 0.0, 0.0, 0.0, 0.0, 0.0, 0.0, 0.0, 0.0, 0.0, 0.0, 0.0, 0.0, 0.0, 0.0, 0.0, 0.0, 0.0, 0.0, 0.0, 0.0, 0.0, 0.0, 0.0, 0.0, 0.07604704, 0.0, 0.0, 0.0, 0.0, 0.0, 0.0, 0.0, 0.0, 0.0, 0.0, 0.0, 0.0, 0.037578218, 0.0, 0.0, 0.0, 0.0, 0.0, 0.0, 0.0, 0.0, 0.0, 0.0, 0.0, 0.0, 0.0, 0.0, 0.0, 0.0, 0.0, 0.0, 0.0, 0.0, 0.0, 0.21325542, 0.19731502, 0.0, 0.0, 0.0, 0.0, 0.0, 0.0, 0.0, 0.0, 0.0, 0.0, 0.0, 0.0, 0.0, 0.0, 0.0, 0.0, 0.0, 0.0, 0.0, 0.040466584, 0.0, 0.0, 0.0, 0.0, 0.0, 0.0, 0.0, 0.0, 0.0, 0.0, 0.0, 0.0, 0.0, 0.0, 0.0, -0.10637963, 0.0, 0.0, 0.0, 0.0, -0.10258295, 0.0, 0.0, 0.0, 0.0, 0.0, 0.0, 0.0, 0.0, 0.0, 0.0, 0.0, -0.040971417, 0.0, 0.0, 0.0, 0.0, 0.0, -0.094376035, 0.061085228, 0.0, 0.0, 0.0, 0.0, 0.0, -0.075578935, 0.0, 0.0, 0.0, 0.0, 0.0, 0.0, 0.0, 0.0, 0.0, 0.0, -0.047376223, 0.0, 0.0, 0.0, 0.0, 0.0, 0.0, 0.0, 0.0, 0.0, 0.0, 0.0, 0.0, 0.0, 0.0, 0.0, 0.0, 0.0, 0.0, 0.0, 0.0, 0.0, -0.06461479, 0.0, 0.0, 0.0, -0.03035949, 0.0, 0.0, 0.0, 0.0, 0.12089602, 0.0, 0.0, 0.0, 0.0, 0.0, -0.026895238, 0.0, 0.0, 0.0, 0.0, -0.052681778, 0.0, 0.0, 0.0, -0.049998663, 0.0, 0.051265877, 0.0, 0.0, 0.0, 0.0, 0.0, 0.0, 0.0, 0.0, 0.0, 0.0, 0.0, 0.0, 0.0, 0.0, 0.0, 0.0, 0.0, 0.0, 0.0, 0.0, 0.0, 0.0, 0.034809373, 0.0, 0.0, 0.0, 0.0, 0.0, 0.0, 0.0, 0.030875305, 0.0, 0.0, 0.0, 0.0, 0.0, 0.0, 0.0, 0.0, 0.0, 0.0, 0.0, -0.05236608, 0.0, 0.0, 0.0, -0.053514097, -0.09174901, 0.0, 0.0, 0.0, 0.0, 0.0, -0.047318466, 0.0, 0.0, 0.0, 0.0, 0.0, 0.0, 0.0, 0.0, 0.0, -0.10326443, 0.0, 0.0, 0.0, 0.0, 0.0, 0.0, 0.0, 0.037089694, 0.0, 0.0, 0.0, 0.0, 0.0, 0.0, 0.0, 0.0, 0.0, 0.040097106, -0.04310863, 0.0, 0.0, 0.0, 0.0, 0.0, 0.0, -0.03537053, 0.0, 0.0, 0.0, -0.043045998, 0.0, 0.0, 0.0, 0.0, 0.0, 0.0, 0.0, 0.0, 0.0, 0.0, 0.0, 0.0, 0.0, 0.0, 0.0, 0.0, 0.0, 0.0, 0.0, 0.0, 0.0, 0.0, 0.0, 0.0, 0.0, 0.0, 0.0, 0.0, 0.0, 0.0, 0.0, 0.0, 0.039976552, 0.0, 0.0, 0.0, 0.0, 0.0, 0.039551776, 0.0, 0.0, 0.0, 0.0, 0.0, 0.0, 0.037607074, 0.0, 0.0, 0.0, 0.0, 0.0, 0.0, 0.0, 0.0, 0.0, 0.0, 0.0, 0.0, 0.0, 0.0, 0.0, -0.047787014, 0.0, 0.0, 0.0, 0.13930348, 0.0, 0.0, 0.0, 0.0, 0.0, 0.0, 0.0, 0.0, 0.0, 0.0, 0.0, -0.013580322, 0.0, 0.0, 0.0, 0.0, 0.0, 0.0, 0.0, 0.0, 0.0, 0.0, 0.0, 0.0, 0.0, 0.0, 0.0, 0.0, 0.0, 0.0, 0.0, 0.0, 0.0, 0.0, 0.0, 0.0, 0.0, 0.0, 0.0, 0.0, 0.0, 0.0, 0.0, 0.0, 0.0, 0.0, 0.0, 0.0, 0.0, 0.0, 0.0, 0.0, 0.0, 0.0, 0.0, 0.0, 0.0, 0.0, 0.0, 0.0, 0.0, 0.0, 0.10425504, 0.0, 0.0, 0.0, 0.0, 0.0, 0.0, 0.0, 0.0, 0.0, 0.0, 0.0, 0.0, 0.0, 0.0, 0.0, 0.0, 0.0, 0.07561848, 0.0, 0.0, 0.0, 0.0, 0.0, 0.0, 0.0, 0.0, 0.0, 0.0, 0.0, 0.0, 0.0, 0.0, 0.0, 0.0, 0.0, 0.0, 0.0, 0.0, 0.0, 0.0, 0.0, -0.02555181, 0.0, 0.0, 0.0, 0.0, 0.0, 0.0, 0.0, 0.0, 0.0, 0.0, 0.0, 0.0, 0.046469946, 0.05621237, 0.0, 0.0, 0.0, 0.0, 0.0, 0.0, 0.0, 0.0, 0.0, 0.0, 0.0, 0.0, 0.0, 0.0, 0.0, 0.0, 0.0, 0.0, 0.0, 0.0, 0.0, 0.0, 0.0, 0.0, 0.0, 0.0, 0.0, 0.0, 0.0, 0.0, 0.0, 0.0, 0.0, 0.0, 0.0, 0.0, 0.0, 0.0, 0.0, 0.0, 0.0, 0.0, 0.0, 0.0, 0.0, 0.0, 0.0, 0.0, 0.0, 0.0, 0.0, 0.0, 0.04616794, 0.0, 0.0, 0.0, 0.0, -0.09347195, 0.0, 0.0, 0.0, 0.0, 0.0, 0.0, 0.0, 0.0, 0.0, 0.0, 0.0, 0.0, 0.0, 0.0, 0.0, 0.0, 0.0, 0.0, -0.04068318, 0.0, 0.0, 0.0, 0.0, 0.0, 0.0, 0.0, 0.0, 0.0, 0.0, 0.0, 0.0, 0.0, 0.0, 0.0, 0.0, 0.0, 0.0, 0.0, 0.0, 0.0, 0.0, 0.0, 0.0, 0.0, 0.0, 0.0, 0.0, 0.0, 0.0, 0.0, 0.0, 0.0, 0.0, 0.0, 0.0, 0.0, 0.06626767, -0.034271292, 0.0, 0.0, 0.0, -0.06853153, 0.0, 0.0, 0.0, 0.0, 0.0, 0.0, 0.0, 0.0, 0.0, 0.0, 0.0, 0.0, 0.0, 0.0, 0.0, 0.0, 0.0, 0.0, 0.0, 0.0, -0.08884955, 0.0, 0.0, 0.0, 0.0, 0.0, 0.11508838, 0.0, 0.0, 0.0, 0.03552531, 0.0, 0.0, 0.0, 0.0, 0.0, 0.0, 0.0, 0.0, 0.0355184, 0.0, 0.0, 0.0, 0.0, 0.0, -0.038687576, 0.0, 0.0, 0.0, 0.0, 0.0, 0.0, 0.0, 0.0, 0.0, 0.0, 0.0, 0.0, 0.0, 0.0, 0.0, 0.0, 0.0, 0.0, 0.0, 0.0, 0.0, 0.0, 0.0, 0.026594283, 0.0, 0.0, 0.0, 0.0, 0.0, 0.0, 0.0, 0.0, 0.0, 0.0, 0.0, 0.0, 0.0, 0.06483133, 0.02639582, 0.0, 0.0, 0.0, 0.0, 0.0, 0.07300424, 0.0, 0.0, 0.0, 0.0, 0.053059537, 0.0, 0.0, 0.0, 0.0, 0.0, 0.0, 0.0, 0.0, 0.0, 0.0, 0.0, -0.04245305, 0.0, 0.0, 0.040002897, 0.0, 0.0, 0.0, 0.0, 0.0, 0.0, 0.0, 0.0, 0.0, 0.0, 0.0, 0.0, 0.0, 0.0, 0.0, 0.0, 0.0, 0.0, 0.0, 0.0, 0.0, 0.0, 0.0, 0.0, 0.0, 0.0, 0.0, 0.0, 0.0, 0.0, 0.0, 0.0, 0.0, 0.0, -0.05997596, 0.0, 0.0, 0.012238325, 0.017715555, 0.0, 0.0, 0.0, 0.0, 0.0, -0.03833618, 0.0, 0.03235238, 0.0, 0.0, 0.0, 0.0, 0.0, 0.0, 0.0, 0.0, 0.0, 0.0, 0.0, 0.0, 0.0, 0.0, 0.0, 0.0, 0.0, 0.0, 0.0, 0.0, 0.0, 0.0, 0.0, 0.0, 0.0, 0.0, 0.0, 0.0, 0.0, 0.0, 0.0, 0.0, 0.0, 0.0, 0.0, 0.0, -0.037796777, 0.0, 0.0, 0.0, -0.037150297, 0.0, 0.0, 0.0, 0.0, 0.0, -0.029279312, 0.0, 0.0, 0.0, 0.0, 0.098107584, 0.0, 0.0, 0.0, 0.0, 0.0, 0.0, 0.0, 0.0, 0.0, 0.0, 0.0, 0.0, 0.0, 0.0, 0.08943076, 0.0, 0.0, 0.0, 0.0, 0.0, 0.0, 0.0, 0.0, 0.0, 0.0, 0.0, 0.0, 0.0, 0.0616548, 0.0, 0.0, 0.0, 0.0, 0.0, 0.0, 0.0, 0.0, -0.056481723, 0.0, 0.0, 0.0, 0.0, 0.0, -0.04650506, 0.0, 0.0, 0.0, 0.0, 0.0, -0.054336596, 0.0, 0.0, -0.058714323, 0.0, 0.0, 0.0, 0.0, 0.02834403, 0.0, 0.0, 0.0, 0.0, 0.0, 0.0, 0.0, 0.0, 0.0, 0.0, 0.0, 0.0, 0.0, 0.0, 0.0, 0.06745985, 0.0, 0.0, 0.0, 0.0, 0.0, 0.0, 0.0, 0.0, 0.0, 0.0, 0.0, -0.05524697, 0.0, 0.0, -0.017616292, -0.015971322, 0.0, 0.06899702, 0.0, 0.0, 0.0, -0.055092942, 0.0, 0.0, 0.0, 0.0, 0.0, 0.0, 0.0, 0.0, 0.0, 0.0, 0.0, 0.0, 0.0, 0.0, 0.0, 0.0, 0.0, 0.0, 0.0, 0.0, 0.0, 0.0, 0.0, 0.0, 0.0, 0.0, 0.0, 0.0, 0.0, 0.0, 0.0, 0.0, 0.0, 0.0, 0.0, 0.0, 0.0, 0.0, -0.023692068, -0.06780691, 0.0, 0.0, 0.0, 0.0, 0.0, 0.0, 0.0, 0.0, 0.0, 0.0, 0.0, 0.012949246, 0.0, 0.0, 0.0, 0.0, 0.0, 0.0, 0.0, 0.0, 0.0, -0.048129648, 0.0, 0.0, -0.04105972, 0.0, 0.0, 0.0, 0.0, 0.0, 0.0, 0.0, 0.0, 0.0, 0.0, 0.0, 0.0, 0.0, 0.0, 0.0, 0.0, 0.0, 0.032363262, 0.0, 0.0, 0.0, 0.0, 0.0, 0.0, 0.0, -0.107505776, 0.0, 0.0, 0.0, 0.0, 0.0, 0.0, 0.0, 0.0, 0.0, 0.0, 0.0, 0.0, 0.0, 0.0, 0.0, 0.0, 0.0, 0.0, 0.0, 0.0, 0.0, 0.0, 0.0, 0.0, 0.0, 0.0, 0.0, 0.0, 0.0, 0.0, 0.0, 0.0, 0.0, 0.0, 0.0, 0.0, -0.02457282, 0.0, 0.0, 0.0, 0.0, 0.0, 0.0, 0.0, 0.0, 0.0, 0.0, 0.0, 0.017580755, 0.0, 0.0, 0.0, 0.0, 0.0, 0.0, 0.0, 0.0, 0.0, 0.0, 0.0, 0.0, 0.0, 0.0, 0.09857245, 0.0, 0.0, 0.0, 0.0, 0.0, 0.0, 0.0, 0.0, 0.0, 0.0, 0.0, 0.0, 0.0, 0.0, 0.0, 0.0, 0.0, 0.0, -0.040440716, 0.0, 0.0, 0.0, 0.0, 0.0, 0.0, 0.0, 0.0, -0.04048307, 0.0, 0.0, 0.0, 0.0, 0.0, 0.0, 0.0, 0.0, 0.0, 0.0, -0.04729474, 0.0, 0.0, 0.0, 0.0, 0.0, 0.0, 0.0, 0.0, 0.0, 0.0, 0.0, 0.0, 0.0, 0.0, 0.0, 0.0, 0.0, 0.0, 0.0, 0.0, 0.0, 0.0, 0.0, 0.0, 0.0, 0.0, 0.0, 0.0, 0.0, 0.0, 0.0, 0.0, 0.0, 0.0, 0.0, 0.0, 0.0, 0.0, 0.0, 0.0, 0.0, 0.0, 0.0, 0.0, 0.0, 0.0, 0.0, 0.0, 0.0, 0.0, 0.0, 0.03889278, 0.0, 0.0, 0.0, 0.0, 0.0, 0.0, 0.0, 0.0, 0.0, 0.0, 0.0, 0.0, 0.0, 0.0, 0.039366882, 0.0, 0.0, 0.0, 0.0, 0.0, 0.0, 0.0, 0.0, 0.0, 0.0, 0.0, -0.05686669, 0.0, 0.0, 0.0, 0.0, 0.0, 0.0, 0.0, 0.0, 0.0, 0.0, 0.0, 0.0, 0.0, 0.0, 0.0, 0.0, 0.0, 0.0, 0.0, 0.0, 0.0, 0.0, 0.0, 0.0, 0.0, 0.0, 0.0, 0.0, 0.0, 0.0, 0.0, 0.0, 0.0, 0.0, 0.0, 0.0, 0.0, 0.0, 0.0, 0.0, 0.0, 0.0, 0.0, 0.0, 0.0, 0.0, -0.040565353, -0.039485097, 0.0, 0.025255179, 0.0, 0.0, 0.040808853, 0.0, 0.0, 0.0, 0.0, 0.0, 0.0, 0.0, 0.0, 0.0, 0.03666066, 0.0, 0.0, 0.0, 0.0, 0.0, 0.0, 0.0, 0.0, 0.0, 0.0, 0.0, 0.0, 0.0, -0.066083685, 0.0, 0.0, 0.0, 0.0, 0.0, 0.0, 0.04004241, 0.0, 0.0, 0.0, -0.032502983, 0.0, -0.054606106, 0.0, 0.0, 0.0, 0.0, 0.0, 0.07895002, 0.0, 0.0, 0.0, 0.0, 0.0, 0.0, 0.0, 0.0, 0.0, 0.0, 0.0, 0.0, 0.0, 0.0, 0.024584547, 0.0, 0.0, 0.0, 0.0, 0.0, 0.0, 0.0, 0.0, 0.0, 0.0, 0.0, 0.0, 0.0, 0.0, 0.0, 0.0, 0.0, 0.0, 0.080217004, 0.0, 0.0, 0.0, 0.0, 0.0, 0.0, 0.0, 0.0, 0.0, 0.0, 0.0, 0.0, 0.0, 0.0, 0.0, 0.0, -0.052040584, 0.03532216, 0.0, 0.0, 0.00752465, 0.0, 0.0, 0.0, 0.0, 0.0, 0.0, 0.0, 0.0, 0.0, 0.0, 0.0, 0.0, 0.0, 0.08631442, 0.0, 0.0, 0.0, 0.0, 0.0, 0.0, 0.0, 0.0, 0.0, 0.0, 0.057214662, 0.0, 0.0, 0.0, 0.0, 0.0, 0.0, 0.0, 0.0, 0.24955545, 0.0, 0.0, 0.0, -0.03645686, 0.0, 0.0, 0.0, 0.0, 0.0, 0.0, 0.0, 0.0, 0.0, 0.0, 0.0, 0.0, -0.015032044, 0.0, 0.0, 0.13808134, 0.13759705, 0.0, 0.0, -0.09468633, 0.0, 0.0, 0.0, 0.0, 0.0, 0.0, 0.0, 0.0, 0.0, 0.0, 0.0, 0.0, -0.034195907, 0.0, 0.0, 0.0, 0.0, 0.0, 0.0, 0.0, 0.0, 0.0, 0.0, 0.0, 0.0, 0.0, 0.0, 0.0, 0.0, 0.0, 0.0, 0.0, 0.0, 0.0, 0.0, 0.0, 0.070283934, 0.0, 0.0, 0.0, 0.0, 0.0, 0.0, 0.04302211, 0.0, 0.0, -0.040720362, 0.0, -0.03727086, 0.0, 0.0, 0.0, 0.0, 0.0, 0.0, 0.0, 0.0, 0.0, 0.0, 0.0, 0.0, 0.0, 0.0, 0.04020465, 0.0, 0.0, 0.0, -0.11581248, 0.0, 0.0, 0.0, 0.0, 0.0, 0.0, 0.17214638, 0.0, 0.0, 0.0, 0.0, 0.112949394, 0.0, 0.0, 0.0, 0.0, 0.0, 0.0, -0.10645456, 0.0, 0.0, 0.0, -0.041694064, 0.0, 0.0, 0.0, 0.0, 0.0, 0.0, 0.0, 0.0, 0.0, 0.0, 0.0, -0.039672766, 0.0, 0.0, 0.0, 0.0, 0.0, 0.0, 0.0, 0.0, 0.0, 0.0, 0.0, 0.0, 0.0, 0.0, 0.0, 0.0, 0.0, 0.0, 0.0, 0.0, 0.0, 0.0, 0.0, 0.0, 0.0, 0.0, 0.0, 0.0, 0.0, 0.0, 0.0, 0.0, 0.0, 0.03097153, 0.0, 0.0, 0.0, 0.0, 0.0, 0.0, 0.0, 0.0, 0.0, 0.0, 0.0, 0.0, 0.0, 0.0, 0.0, 0.0, 0.0, 0.0, 0.0, 0.0, 0.0, 0.0, 0.0, 0.0, 0.0, 0.0, 0.0, 0.0, 0.0, 0.0, 0.0, -0.039770536, -0.04716701, 0.0, 0.0, 0.0, 0.0, 0.0, 0.15675013, 0.0, 0.0, 0.0, 0.0, 0.064248934, 0.0, 0.0, 0.0, 0.0, 0.0, 0.0, 0.0, 0.0, 0.0, 0.0, 0.0, 0.0, -0.042817574, -0.029115884, 0.0, 0.0, 0.0, 0.0, 0.0, 0.0, 0.07199173, 0.0, 0.0, 0.0, 0.0, 0.0, 0.0, 0.0, 0.0, 0.0, 0.0, 0.0, 0.040461652, 0.0, 0.0, 0.0, 0.0, 0.0, 0.0, 0.0, 0.0, 0.0, 0.0, 0.0, 0.0, 0.0, 0.0, 0.0, 0.0, 0.062491044, 0.0, 0.0, 0.0, 0.0, 0.0, 0.0, 0.0, -0.042663287, 0.0, 0.0, 0.04712512, 0.0, 0.0, 0.083544545, 0.0, 0.0, 0.0, 0.0, 0.0, 0.0, 0.0, 0.0, -0.03079043, 0.0, 0.0, 0.0, 0.0, 0.0, -0.03566444, 0.0, 0.0, -0.045286503, -0.051360395, 0.0, 0.0, 0.06957276, 0.0, 0.0, 0.0, 0.091503546, 0.08281241, 0.0, 0.0, 0.0, 0.0, 0.0, 0.0, 0.0, 0.0, 0.0, 0.0, -0.04485534, 0.0, 0.0, 0.0, 0.11202238, 0.0, 0.0, 0.03879532, 0.0, 0.0, 0.0, 0.0, 0.0, 0.0, -0.041955482, 0.0, 0.0, 0.0, 0.0, 0.0, 0.0, 0.0, 0.0, -0.04091684, 0.0, 0.0, 0.0, 0.0, 0.0, 0.0, 0.0, 0.0, 0.0, 0.0, 0.0, 0.0, 0.0, 0.0, 0.0, 0.0, 0.0, 0.0, 0.0, 0.0, 0.0, 0.0, -0.03059082, 0.0, 0.04237182, 0.0, 0.0, 0.0, 0.0, -0.034301326, 0.0, 0.0, 0.0, 0.0, 0.0, 0.0, 0.0, 0.0, 0.0, 0.0, 0.0, 0.0, 0.0, 0.0, 0.0, 0.0, 0.0, 0.0, 0.0, 0.0, -0.10178303, 0.0, 0.0, 0.0, 0.0, 0.0, 0.0, 0.0, 0.0, 0.0, 0.053771995, 0.0, 0.037688498, 0.0, 0.0, 0.0, 0.0, 0.0, 0.0, 0.0, 0.0, 0.0, 0.038877398, 0.0, 0.032609932, 0.01739977, 0.0, 0.0, 0.0, 0.0, -0.066553794, 0.027240202, 0.0, 0.0, 0.0, 0.0, 0.0, 0.0, 0.0, 0.0, 0.0, 0.0, 0.0, 0.0, 0.0, 0.0, 0.0, 0.0, 0.0669155, 0.0, 0.0, 0.0, 0.0, 0.0, 0.0, 0.0, 0.0, -0.041037068, 0.0, 0.0, 0.0, 0.0, 0.0, 0.0, 0.0, 0.0, 0.0, 0.0, 0.0, 0.0, 0.0, 0.0, 0.0, 0.0, 0.0, 0.0, 0.0, 0.0, 0.0, 0.0, 0.0, 0.0, 0.0, 0.0, 0.0, 0.0, 0.0, 0.0, 0.0, 0.0, 0.0, 0.0, 0.0, 0.0, 0.0, 0.0, 0.0, 0.044567682, 0.0, 0.0, 0.0, 0.0, 0.0, 0.0, 0.0, 0.0, 0.029893747, 0.0, 0.0, 0.0, 0.0, 0.0, 0.0, 0.0, -0.036287464, 0.0, 0.0, 0.0, 0.0, 0.0, 0.0, 0.0, 0.039268386, 0.0, 0.0, 0.0, 0.0, 0.0, 0.0, 0.0, 0.0, 0.0, 0.0, 0.074966, 0.0, 0.0, 0.0, 0.0, 0.0, 0.0, 0.0, 0.0, 0.0, 0.0, 0.0, 0.0, 0.0, 0.0, 0.0, 0.0, 0.0, 0.0, 0.0, 0.0, 0.0, 0.0, 0.0, 0.0, 0.0, 0.0, 0.0, 0.0, 0.036662135, 0.0, 0.0, 0.0, -0.041734796, 0.0, 0.0, 0.0, 0.0, 0.0, 0.0, 0.0, 0.0, 0.0, 0.0, 0.0, 0.0, 0.0, 0.0, -0.029018633, 0.0, 0.0, 0.0, 0.0, 0.0, 0.0, 0.0, 0.0, 0.0, 0.0, 0.0, 0.0, 0.11156884, 0.062468134, 0.0, 0.0, 0.078293726, 0.0, 0.051994335, 0.0, 0.0, 0.0, 0.0, 0.0, 0.0, 0.0, 0.0, 0.0, 0.0, 0.0, 0.0, 0.05854315, 0.0, 0.0, 0.0, 0.0, 0.0, 0.0, 0.0, 0.0, 0.0, 0.0, 0.0, 0.0, 0.0, 0.0, 0.0, 0.0, 0.0, 0.0, 0.0, 0.0, 0.0, 0.0, 0.0, 0.0, 0.0, 0.0, 0.0, 0.0, 0.0, 0.0, 0.0, 0.0, 0.0, -0.05903957, 0.0, 0.0, 0.0, 0.0, -0.05088117, 0.0, 0.0, 0.0, 0.02399324, 0.0, 0.0, 0.0, -0.09629934, 0.0, 0.0, 0.0, 0.0, 0.0, 0.0, -0.046505764, 0.0, 0.0, 0.0, 0.0, 0.0, 0.0, 0.0, 0.1474641, 0.0, 0.0, 0.0, 0.0, 0.0, 0.0, 0.0, 0.0, 0.0, 0.0, 0.0, 0.0, 0.0, 0.0, 0.0, 0.0, 0.0, -0.054611698, 0.0, 0.0, 0.075942524, 0.0, 0.0, 0.0, 0.0, 0.0, 0.0, 0.0, 0.0, 0.0, -0.03724564, 0.0, 0.0, 0.0, 0.0, 0.0, 0.0, 0.0, 0.0, 0.0, 0.0, 0.0, 0.0, 0.0, 0.0, -0.06332913, 0.0, 0.0, 0.0, 0.0, 0.0, 0.0, 0.0, 0.07897503, 0.0, 0.0, 0.0, 0.0, 0.0, 0.0, 0.03095609, 0.0, 0.0, 0.0, 0.0, 0.0, 0.0, 0.0, 0.0, 0.0, 0.0, 0.0, 0.0, 0.0, 0.0, 0.0, 0.0, 0.0, 0.0, 0.0, 0.0, 0.0, 0.0, 0.0, 0.0, 0.0, 0.0, 0.0, 0.0, 0.0, 0.0, 0.0, 0.0, 0.0, 0.0, 0.0, 0.0, 0.0, 0.0, 0.0, 0.0, 0.0, 0.0, 0.0, 0.0, 0.0, 0.0, 0.0, 0.0, 0.0, 0.0, 0.0, 0.0, 0.0, 0.0, 0.0, -0.043721866, 0.0, -0.062672175, 0.0, 0.0, 0.0, 0.0, 0.0, 0.0, 0.0, 0.0, 0.0, 0.0, 0.1267007, 0.0, 0.05736421, 0.0, 0.0, 0.0, 0.0, 0.0, 0.0, 0.0, -0.058533933, 0.0, 0.0, 0.0, 0.0, 0.0, 0.0, 0.0, 0.0, -0.05945194, 0.0, 0.0, 0.0, 0.0, 0.0, 0.0, 0.0, 0.0, 0.0, 0.0, -0.041556846, 0.0, 0.0, 0.0, 0.0, 0.0, 0.0, 0.0, 0.0, 0.0, 0.0, 0.0, -0.039569024, 0.0, 0.0, 0.0, 0.0, 0.0, -0.043469153, 0.0, 0.0, 0.0, 0.0, 0.0, 0.0, 0.0, 0.0, 0.0, 0.03675776, 0.0, 0.0, 0.0, 0.0, 0.0, 0.0, 0.0, 0.0, 0.0, 0.0, 0.0, 0.0, 0.0, 0.036885344, -0.057844676, 0.0, 0.0, 0.036757614, 0.0, 0.0, 0.0, 0.0, 0.0, 0.0, 0.0, 0.0, 0.0, 0.0, 0.0, -0.013452813, 0.104706526, 0.0, 0.0, 0.0, 0.0, 0.0, 0.0, 0.0, 0.0, 0.0, 0.0, 0.0, 0.051592074, 0.0, 0.0, 0.0564915, 0.0, 0.0, 0.0, 0.07437105, 0.0, 0.0, 0.0, 0.0, 0.19357611, 0.0, 0.0, 0.0, 0.0, 0.08146163, 0.0, 0.0, 0.0, 0.042991962, 0.1506197, 0.0, 0.0, 0.0, 0.0, 0.0, 0.0, 0.0, 0.0, 0.0, 0.0, 0.0, 0.0, 0.034855176, 0.0, 0.05303854, 0.0, 0.0, 0.0, 0.0, 0.0, 0.0, 0.113349065, 0.0, 0.0, 0.0, 0.0, 0.0, 0.0, 0.0, 0.0, 0.0, 0.0, 0.0, 0.0, 0.0, 0.0, 0.09490719, 0.0, 0.0, 0.0, 0.0, 0.0, 0.0, -0.03712346, 0.0, 0.0, 0.0, 0.0, 0.0, 0.0, 0.0, 0.0, 0.0, 0.0, 0.0, 0.0, 0.0, 0.0, -0.039836466, -0.11106313, 0.06020145, 0.0, 0.0, 0.0, 0.0, 0.0, 0.0, 0.0, 0.03817503, 0.0, 0.0, 0.0, 0.0, 0.0, 0.0, 0.0, 0.0, 0.0, 0.0, 0.0, 0.0, 0.0, 0.0, 0.0, 0.0, 0.0, 0.0, 0.0, 0.0, 0.0, 0.0, 0.0, 0.0, 0.0, 0.0, 0.0, 0.12554324, 0.0, 0.0, 0.0, 0.0, 0.06424641, 0.0, 0.0, 0.0, 0.0, 0.0, 0.0, 0.0, 0.0, 0.0, 0.0, 0.0, 0.0, 0.0, 0.0, 0.0, 0.0, 0.0, 0.0, 0.0, 0.0, 0.0, -0.044183627, 0.0, 0.0, 0.0, 0.0, 0.048176285, 0.0, 0.0, 0.0, 0.0, 0.0, 0.0, 0.0, 0.0, 0.0, 0.04951302, 0.0, 0.0, 0.0, 0.0, 0.0, 0.0, 0.0, 0.0, 0.0, 0.0, 0.0, 0.0, 0.0, 0.0, 0.0, 0.0, 0.0, 0.0, 0.0, 0.0, 0.0, 0.0, 0.0, 0.0, 0.0, 0.0, 0.0, 0.0, 0.0, 0.0, 0.0, 0.0, 0.0, 0.0, 0.0, 0.0, 0.0, 0.0, 0.0, 0.0, 0.0, 0.0, 0.0, 0.0, 0.0, 0.0, 0.0, -0.023109721, 0.0, 0.0, 0.0, 0.0, 0.0, 0.0, 0.0, 0.0, 0.0, 0.0, 0.0, 0.0, 0.0, 0.0, 0.0, 0.0, 0.0, 0.0, 0.0, 0.0, 0.0, 0.0, 0.0, 0.0, 0.0, 0.0, 0.0, 0.0, 0.0, 0.0, 0.0, 0.0, 0.0, 0.0, 0.0, 0.0, 0.0, 0.0, -0.035153836, 0.0, 0.0, 0.0, 0.0, 0.0, 0.0, 0.0, 0.04499615, 0.0, -0.013526908, 0.0, 0.0, 0.0, 0.0, 0.0, 0.0, 0.12693298, 0.0, 0.0, 0.0, 0.0, 0.0, 0.0, -0.009305099, 0.0, 0.0, 0.0, 0.0, 0.0, 0.0, 0.0, -0.059705745, 0.0, 0.0, 0.0, 0.0, 0.0, 0.0, 0.0, 0.0, 0.0, 0.0, 0.0, 0.0, 0.0, 0.0, 0.0, 0.0, 0.0, 0.0, 0.0, 0.0, 0.0, 0.0, 0.0, 0.0, 0.0, 0.0, 0.0, 0.0, 0.0, 0.0, 0.0, 0.0, 0.0, 0.0, 0.0, 0.0, 0.0, 0.0, 0.0, 0.0, 0.0, 0.0, 0.0, 0.0, 0.0, 0.03663129, 0.0, 0.0, 0.0, 0.0, 0.0, 0.0, 0.0, 0.0, 0.0, 0.0, -0.08584453, 0.0, 0.0, 0.0, 0.0, -0.042109285, 0.06717151, 0.0, -0.025138347, 0.0, 0.0, 0.0, 0.0, 0.0, 0.0, 0.0, 0.0, 0.0, 0.0, 0.0, 0.0, 0.0, 0.0, 0.0, 0.0, 0.0, 0.0, 0.0, 0.0, 0.0, 0.0, 0.0, 0.021345623, 0.0, 0.0, 0.0, 0.0, 0.0, 0.0, 0.042414047, 0.0, 0.0, 0.0, 0.0, 0.0, 0.0, 0.0, 0.0, 0.0, 0.0, 0.0, 0.0, 0.0, 0.0, 0.0, 0.0, 0.0, 0.0, 0.0, 0.0, 0.0, 0.0, 0.0, 0.0, 0.0, 0.0, 0.0, 0.0, 0.0, 0.0, 0.0, 0.0, 0.0, 0.0, 0.0, 0.0, 0.0, 0.050913066, 0.0, 0.0, 0.0, 0.0, 0.0, 0.0, 0.0, 0.0, 0.0, 0.0, 0.0, 0.0, 0.0, -0.04546279, -0.03750946, 0.0, 0.0, 0.0, 0.0, 0.0, 0.0, 0.0, 0.0, 0.034810573, 0.0, 0.0, 0.0, 0.0, 0.0, 0.0, 0.0, 0.0, 0.0, 0.0, 0.0, 0.0, -0.037770573, 0.0, 0.0, 0.0, 0.041977786, 0.0, 0.0, 0.0, 0.02603642, 0.0, 0.0, 0.0, 0.0, -0.030090736, 0.0, 0.0, -0.05416845, 0.0, 0.0, 0.0, 0.0, 0.0, 0.0, 0.0, 0.035518043, 0.0, -0.031035872, 0.0, 0.0, 0.0, 0.0, 0.0, 0.0, 0.0, 0.0, 0.0, 0.0, 0.0, 0.0, 0.0, 0.0, 0.0, 0.0, 0.0, 0.0, 0.0, 0.0, 0.0, 0.0, 0.0, 0.0, 0.0, 0.0, 0.0, 0.0414395, 0.0, 0.0, 0.0, 0.0, 0.0, 0.0, 0.0, 0.0, 0.0, -0.035866845, 0.0, 0.0, 0.0, 0.0, 0.039626308, 0.0, 0.0, 0.0, 0.0, 0.0, 0.0, 0.0, 0.0, 0.0, 0.0, 0.0, 0.0, 0.0, 0.0, 0.0, 0.0, 0.0, 0.0, 0.0, 0.0, 0.0, 0.0, 0.0, 0.0, 0.0, 0.0, 0.0, 0.0, 0.0, 0.019514525, 0.0, 0.0, 0.0, 0.0, 0.0, 0.038796324, 0.0, 0.0, 0.0, 0.0, 0.0, 0.0, 0.0, 0.0, -0.04011233, 0.0, 0.0, 0.0, 0.0, 0.0, 0.0, 0.0, 0.0, 0.0, 0.0, 0.0, 0.0, 0.0, 0.0, -0.115063876, 0.0, 0.0, 0.0, -0.13412699, 0.0, 0.0, 0.18427874, 0.0, 0.0, 0.0, 0.0, 0.0, 0.0, 0.0, -0.05819073, 0.0, 0.0, 0.0, 0.0, 0.0, 0.032553148, 0.0, 0.0, 0.0, 0.0, 0.0, 0.0, 0.0, 0.0, 0.0, 0.0, 0.0, 0.0, 0.0, 0.0, 0.0, 0.0, 0.0, 0.0, 0.0, 0.0, 0.0, 0.0, 0.0, 0.0, 0.0, 0.046748664, 0.0, 0.0, 0.0, 0.0, 0.031446967, 0.0, 0.0, 0.0, 0.0, 0.0, -0.018102702, 0.0, 0.0, -0.04628415, 0.0, 0.0, 0.0, 0.0, 0.0, 0.0, 0.0, 0.0, 0.0, 0.0, 0.0, 0.0, 0.0, 0.0, 0.0, 0.0, 0.0, 0.0, 0.0, -0.044940475, 0.0, 0.0, 0.0, 0.0, 0.0, 0.0, 0.0, 0.0, 0.0, 0.0, 0.0, 0.0, 0.0, 0.0, 0.0, 0.0, 0.0, 0.0, 0.0, 0.0, 0.0, 0.0, 0.0, 0.0, 0.0, 0.0, -0.042449143, 0.0, 0.0, 0.0, 0.0, 0.0, 0.0, 0.0, 0.0, 0.0, 0.0, 0.0, 0.03813987, 0.0, 0.0, 0.0, 0.0, 0.0, 0.0, 0.0, 0.0, 0.0, 0.0, 0.0, 0.0, 0.0, 0.0, 0.0, 0.0, 0.0, 0.0, 0.0, 0.0, 0.0, 0.0, 0.0, -0.04711945, 0.0, 0.0, -0.032166257, -0.037403025, 0.0, 0.0, 0.0, 0.0, 0.0, 0.0, 0.0, 0.0, 0.03826899, 0.0, 0.0, 0.0, 0.0, 0.0, 0.0, 0.0, 0.0, 0.0, 0.0, 0.0, 0.0, 0.0, 0.0, 0.0, 0.0, 0.08174647, 0.0, 0.0, -0.063496225, 0.07835502, 0.0, 0.0, 0.0, 0.0, 0.084452555, 0.15751565, 0.0, 0.0, 0.0, 0.0, 0.0, 0.0, 0.0, 0.0, 0.0, 0.0, 0.0, 0.0, 0.0, 0.0, 0.0, 0.0, 0.0, 0.0, 0.0, 0.0, 0.0, 0.0, 0.0, 0.0, 0.0, 0.0, 0.0, 0.0, 0.0, 0.0, 0.0, 0.036908124, 0.0, 0.0, 0.0, 0.0, 0.0, 0.0, 0.0, 0.0, 0.0, 0.0, 0.0, 0.0554203, 0.0, 0.0, -0.036073454, 0.0, 0.0, 0.0, -0.044365052, 0.0, 0.0, 0.0, 0.0, 0.0, 0.0, 0.03589452, 0.0, 0.0, 0.0, 0.0, 0.0, 0.0, 0.0, -0.045530084, 0.0, 0.036911395, 0.0, 0.0, 0.009834204, 0.0, 0.0, 0.0, 0.0, 0.0, 0.0, 0.0, 0.0, 0.0, 0.0, 0.0, -0.043523364, 0.0, 0.0, 0.0, 0.0, -0.041911643, 0.0, 0.0, 0.0, 0.0, 0.0, 0.0, 0.0, 0.0, 0.0, 0.0, 0.06378364, 0.0, 0.0, 0.0, 0.050931417, 0.0, 0.0, 0.0, 0.0, 0.0, 0.0, 0.0, 0.0, 0.0, 0.0, 0.0, 0.0, 0.0, 0.047087703, 0.0, 0.0, 0.0, 0.0, 0.0, 0.0, 0.0, 0.0, 0.048548832, 0.0, 0.0, 0.0, 0.0, 0.0, 0.0, 0.027067095, 0.0, 0.0, 0.0, 0.0, 0.0, 0.0, 0.037093535, 0.0, 0.0, 0.0, 0.09438682, 0.0, 0.0, 0.0, 0.0, 0.0, 0.0, 0.0, 0.0, 0.0, 0.044113662, 0.0, 0.0, 0.0, 0.0, 0.0, 0.0, 0.0, 0.0, 0.0, 0.0, 0.0, 0.0, 0.0, 0.0, 0.0, 0.0, 0.0, -0.033875734, 0.0, 0.0, 0.0, 0.0, 0.0, 0.0, 0.0, 0.0, 0.0, 0.0, 0.0, 0.0, 0.0, 0.0, 0.0, 0.0, 0.0, 0.0, 0.0, 0.0, 0.0, 0.0, 0.0, 0.0, 0.0, 0.0, 0.0, 0.14435035, 0.0, 0.0, 0.0, 0.0, 0.0, -0.042613864, 0.0, 0.0, 0.0, 0.0, 0.0, 0.0, 0.0, 0.0, 0.0, 0.0, 0.039855573, 0.0, 0.0, 0.0, 0.0, 0.0, 0.0, 0.0, 0.0, 0.0, 0.0, -0.011584306, 0.0715316, 0.0, 0.0, 0.0, 0.0, 0.0, 0.0, -0.04137353, 0.0, 0.0, 0.0, 0.0, 0.0, 0.0, 0.0, 0.0, 0.0, 0.0, 0.0, 0.15673394, 0.0, 0.0, 0.0, 0.0, 0.0, 0.0, 0.0, -0.073057674, 0.0, 0.0, 0.0, 0.0, 0.0, 0.0, 0.0, 0.0, 0.0, 0.0, 0.03990334, 0.0, 0.0, 0.0, 0.0, 0.0, 0.0, 0.0, 0.0, 0.0, 0.0, 0.0, 0.0, 0.0, 0.0, 0.0, 0.0, 0.0, 0.0, 0.0, 0.0, 0.0, 0.0, 0.0, 0.0, 0.0, 0.0, 0.055406507, 0.0, 0.0, 0.0, -0.09448875, 0.0, 0.0, 0.0, 0.0, 0.0, 0.0, 0.062845215, 0.0, 0.0, 0.0, 0.0, 0.0, 0.035364687, 0.0, 0.0, 0.0, 0.0, 0.0, 0.0, 0.0, 0.0, 0.0, -0.03852062, 0.0, 0.0, 0.0, 0.0, 0.0, 0.041766807, 0.0, 0.0, 0.0, 0.0, 0.0, 0.0, 0.0, 0.0, 0.0, 0.037575048, 0.0, 0.0, 0.0, 0.0, 0.0, -0.058796246, 0.0, 0.055418726, 0.0, 0.0, -0.04688574, 0.0, 0.0, 0.0, 0.0, 0.0, -0.03953443, 0.043625798, 0.0, 0.0, 0.0, 0.0, 0.0, 0.0, 0.0, 0.0, 0.0, 0.0, 0.0, 0.0, 0.0, 0.0, 0.0, 0.0, 0.0, 0.0, 0.0, 0.0, 0.0, 0.0, 0.0, 0.0, 0.0, 0.0, 0.0, 0.0, 0.0, 0.0, 0.0, 0.0, 0.0, 0.0, 0.03900674, 0.0, 0.0, -0.10651862, 0.0, 0.0, 0.0, 0.0, -0.01688731, 0.0, 0.0, 0.0, -0.058061764, -0.05957728, 0.0, 0.0, 0.0, 0.0, 0.0, 0.0, 0.0, 0.0, 0.0, 0.0, 0.0, 0.0, 0.0, -0.036784895, 0.0, 0.0, 0.0, 0.0, 0.0, 0.0, 0.0, 0.069611006, -0.109464824, 0.0, 0.0, 0.0, 0.0, 0.0, 0.0, 0.0, 0.0, 0.0, 0.0, 0.0, 0.0, 0.0, 0.0, 0.0, -0.038060546, 0.0, 0.10673369, 0.0, 0.0, 0.037930254, 0.0, 0.0, 0.0, 0.0, 0.0, 0.0, 0.12649241, 0.0, -0.05457973, 0.0, 0.0, 0.0, 0.0, 0.0, 0.0, 0.0, 0.0, -0.05188746, 0.0, 0.0, 0.0, 0.0, 0.0, 0.0, 0.0, 0.0, 0.0, 0.0, 0.0, 0.0, 0.0, 0.0, 0.0, 0.0, 0.0, 0.0, 0.0, 0.0, 0.0, 0.037160114, 0.0, 0.0, 0.0, 0.0, 0.0, -0.019655868, 0.021238467, 0.0, 0.0, 0.0, -0.02004414, 0.050669223, -0.08777818, 0.0, 0.0, -0.017770946, 0.0, -0.019435592, -0.050595697, 0.0, 0.0, 0.0, 0.0, 0.0, 0.0, 0.0, 0.0, 0.0, 0.0, 0.0, 0.0, 0.0, 0.11626481, 0.0, 0.0, 0.0, 0.0, 0.0, 0.0, 0.0, 0.0, 0.0, 0.0, 0.0, 0.039040342, 0.0, 0.0, 0.0, 0.0, 0.0, 0.0, 0.0, 0.0, -0.042089023, 0.0, 0.0, 0.0, -0.03931831, 0.0, 0.0, 0.0, 0.0, 0.0, 0.0, 0.0, 0.0, 0.0, 0.0, 0.0, 0.0, 0.0, 0.0, 0.037813757, 0.03812314, 0.0, 0.0, -0.08164208, 0.0, 0.049799, 0.0, 0.0, 0.0, 0.0, -0.041503646, 0.0, 0.0, 0.0, -0.045654193, 0.0, 0.0, 0.0, 0.0, 0.0, 0.0, 0.0, 0.0, 0.0, 0.0, 0.0, 0.0, 0.0, 0.0, 0.0, 0.0, 0.0, 0.0, 0.0, 0.09165306, 0.0, 0.0, -0.10913205, 0.0, 0.0, 0.0, 0.0, 0.0, -0.024112234, 0.0, 0.0, 0.0, 0.03379177, 0.0, 0.0, 0.0, 0.0, 0.0, 0.0, 0.0, 0.0, 0.0, -0.062410124, 0.0, 0.0, 0.0, 0.0, -0.06971456, 0.0, 0.0, 0.0, 0.0, 0.0, 0.0, 0.0, 0.0, 0.0, 0.0, 0.0, 0.0, 0.0, 0.0, 0.0, 0.0, 0.0, 0.0, 0.0, 0.0, 0.0, 0.0, 0.0, 0.0, 0.0, 0.0, 0.0, 0.0, 0.026477551, 0.0, 0.0, 0.0, 0.0, 0.0, 0.0, 0.0, 0.0, 0.0, 0.0, 0.0, 0.0, 0.0, 0.0, 0.0, 0.0, 0.0, 0.0, 0.0, 0.0, 0.0, 0.0, 0.0, -0.046786875, 0.0, 0.0, 0.0, 0.0, 0.0, 0.0, 0.015136219, 0.0, 0.0, 0.0, 0.0, 0.040435746, 0.0, 0.0, -0.040237226, 0.0, 0.0, 0.0, 0.0, 0.0, 0.0, 0.0, 0.0, 0.0, 0.0, 0.0, 0.0, 0.0, 0.0, 0.0, 0.0, 0.0, 0.0, 0.0, 0.0, 0.0, 0.0, 0.0, 0.0, 0.0, 0.0, 0.0, 0.0, 0.0, 0.0, 0.0, 0.0, 0.0, 0.0, 0.049980298, 0.0, 0.0, 0.0, 0.0, 0.0, 0.0, 0.0, 0.0, 0.0, 0.0, 0.0, 0.0, 0.0, -0.051233128, 0.0, 0.0, 0.0, 0.0, 0.0, 0.0, -0.044791684, 0.0, 0.0, 0.0, 0.0, 0.0, 0.0, 0.0, 0.0, 0.0, 0.0, 0.0, 0.0, 0.0, 0.0, 0.0, 0.0, 0.0, 0.0, 0.0, 0.0, 0.0, 0.0, 0.0, 0.0, 0.0, 0.0, 0.0, 0.0, 0.0, 0.0, 0.0, 0.0, 0.0, 0.0, -0.03957893, 0.0, 0.0, 0.0, 0.0, -0.038335547, 0.0, 0.0, 0.0, 0.0, 0.0, 0.0, 0.0, 0.0, 0.0, 0.0, 0.0, 0.0, 0.0, 0.0, 0.03590567, 0.0, 0.0, 0.0, -0.060314134, 0.0, 0.0, 0.0, 0.0, 0.04036462, 0.043961048, 0.0, -0.058307353, 0.0, 0.0, 0.0, 0.09752513, 0.0, 0.0, 0.0, 0.0, 0.0, 0.0, 0.0, 0.0, 0.0, 0.0, 0.0, 0.0, 0.0, 0.0, 0.0, 0.0, 0.0, 0.0, 0.0, 0.0, 0.0, 0.0, 0.0, 0.0, 0.0, 0.06723506, 0.0, 0.0, 0.0, 0.0, 0.0, 0.0, 0.0, 0.0, 0.0, 0.0, 0.0, 0.0, 0.0, 0.0, 0.0, 0.0, 0.0, 0.0, 0.0, -0.024018249, 0.0, 0.0, 0.0, 0.0, 0.0, 0.0, -0.08009765, 0.0, -0.022619655, 0.0, 0.0, 0.0, 0.0, -0.020836776, 0.0, 0.0, 0.0, 0.0, 0.0, -0.05070686, 0.0, 0.0, 0.0, 0.0, 0.0, 0.0, 0.0, 0.0, 0.0, 0.0, 0.0, 0.0, 0.0, 0.0, 0.0, 0.0, 0.0, 0.0, 0.0, 0.0, 0.0, 0.0, 0.0, 0.0, 0.0, 0.0, 0.0, 0.0, 0.0, 0.0, 0.0, 0.0, 0.0, 0.0, 0.0, 0.0, 0.0, 0.0, 0.0, 0.0, -0.08145624, 0.0, 0.0, 0.0, -0.0146477595, 0.0, 0.0, 0.0, 0.0, -0.030627236, 0.0, -0.053802166, 0.0, -0.059615415, 0.06702776, 0.0, 0.0, 0.0, 0.0, 0.06855768, 0.019861339, 0.0, 0.0, 0.0, 0.0, 0.0, 0.0, 0.0, 0.0, 0.0, 0.0, 0.0, 0.0, 0.0, 0.0, 0.0, 0.0, 0.0, 0.0, 0.0, 0.0, 0.0, 0.0, 0.0, 0.0, 0.0, 0.0, 0.0, 0.22773191, 0.0, 0.0, 0.0, 0.0, 0.0, 0.0, 0.0, 0.0, 0.0, 0.0, 0.0, 0.0, -0.017863942, 0.0, 0.0, 0.0, 0.0, 0.0, 0.0, -0.014912152, 0.0, 0.0, 0.0, 0.0, 0.0, 0.0, 0.0, 0.0, 0.0, 0.0, 0.0, 0.0, 0.0, 0.0, 0.0, 0.0, 0.0, 0.0, 0.0, 0.0, 0.025708502, 0.0, 0.0, 0.0, 0.0, 0.0, 0.0, 0.0, 0.0, 0.0, 0.0, 0.0, 0.0, 0.0, 0.0, 0.09537527, 0.0, 0.0, -0.03889938, 0.0, 0.0, 0.0, 0.0, 0.0, 0.0, 0.0, 0.018922076, 0.0, 0.0, 0.0, 0.0, 0.0, 0.0, 0.0, 0.0, 0.0, 0.0, 0.0, 0.0, 0.0, 0.0, 0.14314069, 0.0, 0.0, 0.0, 0.0, 0.0, 0.0, 0.0, 0.0, 0.0, 0.0, 0.037211344, 0.0, 0.0, 0.0, 0.0, 0.0, 0.0, 0.0, 0.0, 0.0, 0.0, 0.0, 0.0, 0.0, 0.0, 0.0, 0.0, 0.0, 0.0, 0.0, 0.0, 0.0, 0.0, 0.0, 0.0, 0.08419099, 0.0, 0.0, 0.0, 0.0, 0.0, 0.0, 0.0, 0.0, 0.0, 0.0, 0.0, 0.0, 0.0, 0.0, 0.0, 0.0, 0.0, 0.0, 0.0, 0.0, 0.0, 0.0, 0.0, 0.0, 0.0, 0.0, 0.0, 0.0, 0.0, 0.0, 0.0, 0.056613237, 0.0, 0.03511882, 0.0, 0.0, 0.0, 0.0, 0.039579358, 0.0, 0.0, 0.0, 0.0, -0.0044832053, 0.020868786, 0.0, 0.0, 0.0, 0.0, 0.0, 0.0, 0.0, 0.0, 0.0, 0.0, 0.0, 0.0, 0.0, 0.0, 0.0, 0.0, -0.03864356, 0.0, 0.0, 0.03971072, 0.0, 0.0, 0.0, 0.0, 0.0, 0.041862983, -0.037784327, 0.0, 0.0, -0.073519595, 0.0, 0.0, 0.0, 0.0, 0.0, 0.0, 0.0, 0.0, 0.0, 0.0, 0.0, 0.0, 0.0, 0.0, 0.0, 0.0, 0.0, 0.0, 0.0, 0.0, 0.0, -0.038332183, 0.038875267, 0.036075953, 0.0, 0.0, 0.0, 0.0, 0.0, 0.0, 0.0, 0.0, 0.040485285, 0.0, -0.043144677, 0.0, 0.0, 0.0, 0.0, 0.0, 0.0, 0.03820815, 0.0, 0.0, 0.0, 0.0, 0.0, 0.0, 0.0, 0.0, 0.0, 0.0, 0.0, 0.0, 0.0, 0.0, 0.0, 0.0, 0.0, 0.0, 0.0, 0.0, 0.0, 0.0, 0.12088355, 0.0, -0.020060912, 0.0, 0.0, 0.0, 0.0, 0.0, 0.0, 0.0, 0.0, 0.0, 0.017474398, -0.04788322, 0.0, 0.0, 0.0, 0.0, 0.0, 0.0, 0.0, 0.039014008, 0.0, 0.0597024, 0.0, 0.0, 0.0, 0.0, 0.0, 0.0, 0.0, 0.0, 0.0, 0.0386954, 0.0, 0.0, 0.0, 0.0, 0.0, 0.0, 0.0, 0.0, 0.0, 0.0, 0.0, 0.03451099, 0.0, 0.0, 0.0, 0.0, 0.0, 0.0, 0.0, 0.0, 0.0, 0.0, 0.0, 0.0, 0.0, 0.0, 0.0, 0.0, 0.0, 0.0, 0.0, 0.0, 0.0, 0.0, 0.0, 0.0, 0.0, 0.0, 0.0, 0.12152678, 0.0, 0.0, 0.0, 0.0, 0.0, -0.084607325, 0.0, 0.0, 0.0, 0.0, 0.0, 0.054837465, 0.0, -0.06892245, 0.0, -0.111302815, 0.0, 0.0, 0.0, 0.0, 0.0, 0.0, 0.0, -0.04790374, 0.0, 0.0, 0.0, 0.0, 0.0, 0.0, 0.0, 0.0, 0.0, 0.0, 0.0, 0.0, 0.0, 0.0, 0.0, 0.0, 0.0, 0.0, 0.0, 0.0, 0.0, 0.0, 0.0, 0.0, 0.0, 0.0, 0.0, 0.0, 0.0, 0.0, 0.0, 0.0, 0.0, 0.0, 0.0, 0.0, 0.0, 0.0, 0.0, 0.0, 0.0, 0.0, 0.0, 0.0, 0.0, 0.0, 0.0, 0.0, 0.0, 0.0, 0.0, 0.0, -0.06769324, 0.0, 0.0, 0.0, 0.0, 0.0, 0.0, 0.0, 0.0, 0.0, 0.0, 0.0, 0.0, 0.0, 0.0, 0.0, 0.0, 0.0, 0.0, 0.0, 0.0, 0.0, 0.0, 0.0, 0.0, 0.0, 0.0, 0.0, 0.0, 0.13107966, 0.0, 0.0, 0.0, 0.0, 0.0, 0.0, 0.0, 0.0, 0.0, 0.0, 0.0, 0.0, 0.0, 0.0, 0.0, 0.0, 0.0, 0.0, 0.0, 0.0, 0.0, 0.0, 0.0, 0.041190818, 0.0, 0.0, 0.0, 0.0, 0.0, 0.0, 0.0, 0.0, 0.0, 0.0, 0.0, 0.0, 0.0, 0.0, 0.0, 0.0, 0.0, 0.0, 0.0, 0.0, 0.0, 0.05998174, 0.0, 0.0, 0.0, 0.0, 0.0, 0.0, 0.0, 0.0, 0.0, 0.0, 0.0, 0.04132554, -0.042591464, 0.0, 0.0, 0.043743398, -0.041164406, -0.04156198, 0.0, 0.0, 0.0, 0.0, 0.0, 0.0, 0.0, 0.0, 0.0, 0.0, 0.0, 0.0, 0.0, 0.0, 0.0, 0.0, 0.0, 0.0, 0.0, 0.08128459, 0.0, -0.04645682, 0.0, 0.0, 0.13758183, 0.0, 0.0, 0.063261256, 0.0, 0.0, 0.0, 0.027099933, 0.0, 0.0, 0.0, 0.0, 0.0, 0.0, 0.0, 0.0, 0.0, 0.0, 0.0, 0.0, 0.080293015, 0.0, 0.0, 0.0, 0.0, 0.0, 0.0, 0.11920553, 0.0, 0.0, 0.0, 0.0, -0.036825404, 0.06313811, 0.0, 0.0, -0.10765633, 0.0, 0.0, 0.0, 0.0, 0.0, 0.0, 0.0, 0.0, 0.0, 0.0, 0.0, 0.0, -0.05250795, 0.0, 0.0, 0.0, 0.0, 0.0, 0.0, 0.0, -0.09384843, 0.0, 0.0, 0.0, 0.0, 0.0, 0.0, 0.039632034, 0.0, 0.0, 0.0, 0.0, 0.0, 0.0, -0.076092966, 0.0, 0.0, 0.0, -0.056918226, 0.0, 0.16394611, 0.0, -0.06116047, 0.0, 0.0, 0.0, 0.0, 0.0, 0.0, 0.0, -0.03666337, -0.06637686, 0.0, 0.0, 0.0, 0.0, 0.0, 0.0, 0.0, 0.0, 0.0, 0.0, 0.03846034, 0.0, 0.0, 0.0, 0.0, -0.038406253, 0.0, 0.0, 0.0, 0.0, 0.0, 0.0, 0.0, 0.0, 0.0, 0.0, 0.0, 0.0, 0.0, 0.0, 0.0, 0.0, 0.0, 0.0, 0.0, 0.0, 0.0, 0.0, 0.0, 0.0, 0.0, 0.0, 0.0, 0.0, 0.0, 0.0, 0.0, 0.0, 0.0, 0.0, 0.04268309, 0.05656633, 0.0, 0.0, 0.08442322, 0.0, 0.0, 0.0, 0.0, 0.0, 0.0, 0.0, 0.0, 0.0, 0.0, 0.0, 0.0, 0.0, 0.0, 0.0, 0.0, 0.0, 0.0, 0.0, 0.0, 0.04072712, 0.0, 0.0, 0.0, 0.0, 0.0, 0.0, 0.0, 0.0, 0.0, 0.0, 0.0, -0.035580784, 0.0, 0.0, 0.0, 0.0, 0.0, 0.0, 0.0, 0.0, 0.0, 0.0, 0.0, 0.0, 0.0, 0.0, 0.0, 0.0, 0.0, 0.0, 0.0, 0.0, 0.0, 0.0, 0.0, 0.0, 0.0, 0.0, 0.0, 0.0, 0.0, 0.0, 0.0, 0.0, 0.0, 0.0, 0.0, 0.0, 0.0, -0.04241628, 0.0, 0.0, 0.0, 0.0, 0.0, 0.0, 0.0, 0.0, 0.0, 0.0, 0.0, 0.0, 0.0, 0.0, 0.0, 0.0, 0.0, 0.0, 0.097842306, 0.0, 0.0, 0.0, 0.0, 0.0, 0.0, 0.0, 0.0, 0.0, 0.04345829, 0.0, 0.0, 0.0, 0.0, 0.0, -0.03928118, 0.0, 0.0, 0.0, 0.0, 0.0, 0.0, 0.0, 0.0, 0.0, 0.0, 0.0, 0.0, 0.0, 0.0, -0.038612165, 0.04921643, 0.0, 0.0, 0.0, 0.0, 0.0, 0.069169655, 0.08887499, 0.0, 0.0, 0.0, 0.0, 0.079150885, -0.031881534, 0.0, 0.0, 0.0, 0.0, 0.0, -0.042782668, 0.08033796, 0.0, 0.0, 0.0, 0.0, 0.0, 0.0, 0.0, 0.0, 0.0, 0.0, 0.0, 0.04115231, 0.0, 0.0, 0.0, 0.0, 0.0, 0.0, 0.0, 0.0, 0.0, 0.0, 0.0, 0.0, 0.0, 0.0, 0.0, 0.0, 0.0, 0.0, 0.0, 0.0, 0.0, 0.0, 0.0, 0.09136794, 0.0, 0.0, 0.0, 0.0, 0.04179618, 0.0, 0.0, 0.0, 0.0, 0.0, 0.0, 0.0, 0.0, 0.0, 0.0, 0.0, 0.0, 0.0, 0.0, 0.0, 0.0, 0.0, 0.0, 0.0, 0.0, 0.0, 0.0, 0.0, 0.0, 0.0, 0.0, 0.0, 0.0, 0.0, 0.0, 0.0, 0.0, 0.056337424, 0.0, -0.025013424, 0.0, 0.0, 0.0, 0.0, 0.06061113, -0.039975274, -0.06279737, 0.0, 0.0, 0.0, 0.0, 0.0, 